	1	2	3	4	5	6	7	8	9	10	11	12	13	14	15	16	17	18	19	20	21	22	23	24	25	26	27	28	29	30	31	32	33	34	35	36	37	38	39	40	41	42	43	44	45	46	47	48	49	50	51	52	53	54	55	56	57	58	59	60	61	62	63	64	65	66	67	68	69	70	71	72	73	74	75	76	77	78	79	80	81	82	83	84	85	86	87	88	89	90	91	92	93	94	95	96	97	98	99	100	101	102	103	104	105	106	107	108	109	110	111	112	113	114	115	116	117	118	119	120	121	122	123	124	125	126	127
ACTN1	0.1337405	0.09742663	-0.11709673	0.07770811	0.06161493	-0.053582095	0.009540374	0.021147227	-0.10132946	0.20363274	-0.02565529	0.24030884	-0.18036874	-0.07585461	0.075623766	-0.044029105	-0.043529496	-0.022108104	-0.12791613	0.14692138	-0.046207413	0.061114214	-0.10889866	-0.005126821	-0.16341974	0.010696864	0.02592925	-0.10548496	0.040186927	-0.10129683	0.12795165	0.106287345	-0.09536545	-0.007999176	0.13760182	-0.046972703	-0.05960945	0.0792698	0.15492131	-0.005047288	-0.08815091	-0.036251843	0.012406361	-0.041723862	0.047976296	-0.042582646	-0.07488476	0.050181203	-0.052327316	0.011492271	-0.12520175	0.13580035	-0.034920253	0.10682571	0.12067257	-0.048449192	-0.019749738	-0.04726843	0.003964317	-0.06993217	0.16664264	0.07030186	0.041988075	0.06465092	0.1254806	-0.08460182	-0.10168855	-0.10878082	-0.09517447	-0.05984976	-0.021119278	-0.058384046	0.035409756	0.010505206	0.044839207	0.1013554	-0.147781	-0.040837433	-0.05968691	0.04341233	-0.10763951	-0.015558242	0.11195386	0.079313345	0.065213054	-0.016314214	-0.0731249	0.0624073	0.079274505	-0.03023613	-0.10729248	-0.008445668	-0.09886457	-0.040725157	0.045080744	-0.08363047	0.07807736	0.13798496	-0.0200091	0.042854134	0.009430826	0.19692275	0.07762358	-0.105923854	-0.0015440638	0.051443156	-0.03549994	0.031474426	-0.12953708	-0.05969306	0.2074688	-0.14732091	0.07780454	-0.07952113	0.14850944	-0.056963734	0.07715542	0.06463725	0.053803246	0.008529141	-0.06645785	-0.06929455	-0.12156981	0.01832732	0.032558344	0.07129946	0.02045598	0.10128802
ANXA2	-0.15953027	-0.0852842	-0.021366362	-0.053166863	0.029412126	-0.057859592	0.16601183	-0.030098103	0.07093446	-0.050552797	0.117021345	0.14427058	-0.07998903	0.014323385	0.13784589	0.01966254	-0.0342591	-0.11151525	0.000106834195	-0.04165998	-0.15320866	0.0812779	-0.07785363	0.05717679	-0.12247871	-0.09655395	-0.0022759773	0.009730787	-0.06274914	0.17074275	0.013112346	0.05800944	0.13778572	-0.0056899344	0.007911714	0.16654682	0.015028202	0.09948511	-0.02934403	-0.053843517	-0.17830557	0.028377954	0.057591572	-0.14208248	0.027794356	0.09095079	-0.11043989	0.032017875	0.045748662	-0.12221047	0.06882775	-0.10507039	-0.041184846	-0.07790161	0.07105488	-0.04788871	0.06805317	0.19141941	-0.083057374	0.107481524	-0.11379994	6.3564476e-05	-0.0059432834	-0.118410654	-0.06049972	-0.05949249	-0.051029965	-0.12963378	-0.12883127	0.12209339	0.060225535	0.062290434	0.05804002	-0.023037536	0.005053815	-0.06925381	-0.026806502	-0.121112846	0.05721848	0.033935603	-0.021822795	-0.1370717	0.011494967	-0.10663217	-0.12427552	0.064459816	0.08184194	0.08699508	-0.116397105	0.048778534	-0.029416386	-0.09597385	0.15127437	-0.13711631	0.060018428	-0.07970377	0.031308644	0.0017392943	-0.11680865	0.10777862	0.12468641	-0.037986506	0.048660837	-0.16426545	-0.11631013	0.042315025	0.02422858	-0.027178371	0.08001557	-0.057540163	0.029807929	0.02309573	-0.11232353	0.10957771	0.12851277	-0.090496644	0.087548256	-0.01164462	0.1724284	0.05294044	0.06906968	-0.034536026	-0.06768651	-0.0020753052	0.15442011	0.029145492	0.072306976	0.08233791
APEX1	0.10310658	-0.11442828	-0.046751633	0.04766559	0.13117732	0.08120576	-0.0125407865	-0.052097786	-0.051915474	0.0025066033	-0.031563416	-0.09799478	0.14256412	0.08427071	-0.0040511875	0.14779182	-0.1477152	0.03175782	-0.0038400942	-0.012843108	0.114729404	-0.05611973	-0.008934466	0.0108069405	0.074212424	-0.12414694	-0.082244195	0.16122693	0.08570192	0.07006968	-0.005698053	0.017076842	-0.094055764	0.0953402	0.15838191	-0.011886847	-0.17873403	-0.085769236	0.05600079	-0.0848164	0.10351314	0.034112383	-0.047434527	-0.028136516	0.11226647	0.00023824371	-0.07715049	0.011394731	-0.053669162	-0.0016402109	0.04696769	-0.08345631	0.10193519	0.028930338	0.035751216	0.057149597	0.11734722	0.026993167	-0.038137693	0.09668063	0.053494092	-0.059096947	0.12512672	0.08801647	-0.020102927	0.06871665	-0.14975327	0.094909996	0.0055791694	0.049043566	-0.17964613	-0.107198484	-0.16019273	0.16166112	-0.092837326	0.021143459	0.18449369	-0.02792469	-0.057700083	0.011040727	0.1587288	0.1232751	0.05468656	0.07763129	-0.039271995	-0.17940125	-0.09999391	-0.1194445	0.0018523248	-0.028169874	0.1501436	0.058443535	-0.007904326	0.02040815	0.096213534	0.06388304	-0.03713693	-0.07161115	-0.030077443	0.07954796	0.06581885	0.09081491	-0.027003394	0.0120588	0.033560883	0.03204045	0.01455647	0.11788541	-0.008369807	-0.12177066	0.11347759	-0.15357305	-0.050989334	0.046657275	-0.06871861	-0.19425085	0.048774876	0.06057148	-0.06255829	-0.12340436	-0.122681186	0.06576494	0.21109968	0.011949011	0.02231612	0.03557781	-0.056015566	-0.03758606
ARPC3	0.016195431	0.06404182	0.0923605	0.19938496	-0.03904921	-0.07885331	0.0046555744	-0.001799318	-0.11564263	0.13362245	-0.052722536	-0.028720232	0.05538795	0.15467401	-0.014854835	0.024726816	0.060481716	0.10620015	-0.08264128	0.08542842	0.017369187	-0.0817057	0.1079948	0.12190937	0.03386755	0.06954917	-0.11038751	0.004785993	-0.06739957	-0.028285395	-0.013203773	0.11316595	-0.03475352	-0.10641802	0.13475394	0.04889151	-0.0031961766	-0.0008734974	0.12539974	-0.11522243	-0.0036390354	0.14710619	-0.059924487	0.004016737	0.054342907	-0.10746292	0.0015667733	-0.041673865	-0.17782758	0.07657064	-0.03125515	0.11807254	0.10483621	0.0859654	0.04199299	-0.07690277	0.046524726	-0.04970199	-0.068710946	0.04745484	0.086487755	-0.054165084	0.17562366	0.093334205	0.19481915	0.087792024	0.06724986	0.05937839	0.016502468	-0.17711519	0.008547261	0.03764266	-0.027395487	0.042346075	-0.021345064	-0.03317871	0.019522738	0.023474716	-0.041764274	-0.060782038	0.17059013	0.13316992	0.20389661	0.0073768687	0.12585951	-0.13864109	0.06771041	-0.10367729	0.12257438	0.09416619	-0.02665698	0.15985751	0.029337587	0.072137505	-0.025811087	0.066455334	0.10494857	0.05178939	0.15428492	0.06582897	0.042845003	0.13028546	0.066169634	-0.051961485	-0.046720967	0.085353635	0.09161752	-0.015024707	-0.029220883	-0.004973498	-0.01701332	-0.015594979	0.03061618	0.09189593	0.10316226	-0.03943586	0.07979844	-0.041821625	-0.01626821	0.052044112	-0.20412211	0.0029988217	0.09039977	0.08192582	-0.05292791	0.15816833	-0.17758507	0.030496486
BRD2	-0.14023826	0.08044905	0.044125415	0.14055343	-0.052565884	-0.08246641	0.05396198	0.080971695	0.03180449	0.020426193	0.015972387	-0.1142195	-0.10588468	-0.0041631744	0.050273236	-0.12571697	0.0763269	0.14534745	-0.07189544	0.031479012	0.01747342	-0.08806189	0.15546349	0.04340483	0.028216867	0.08571109	0.05698013	-0.11616566	-0.092561916	-0.08219216	-0.07797402	0.04871206	0.03900828	-0.06505555	-0.17432277	0.0015780794	0.012206084	-0.09578458	-0.033962373	0.10977983	0.06679166	-0.06392018	-0.05262201	0.034056377	-0.015391355	-0.12774937	0.050462507	-0.11257643	-0.005604447	-0.006590304	-0.1501515	-0.057438705	0.022999093	0.08005001	-0.07050497	0.008723522	-0.06328875	-0.03278287	0.10954426	-0.16409433	-0.0045868615	0.032902166	-0.063089624	-0.055819526	-0.021483947	0.018944856	0.12133723	0.05407607	0.014710085	-0.10428775	0.13741425	0.05036603	0.03560656	-0.087868966	0.12627013	-0.03130831	-0.08582459	0.07528559	0.054583423	-0.13383488	-0.10624537	-0.13322715	-0.024480544	-0.059898514	0.060459815	0.08193732	0.07606759	-0.10831445	0.1628303	0.056929387	-0.051333234	0.0835025	-0.0071209758	-0.1127548	-0.19507046	0.01796268	-0.09534298	-0.06655257	0.12907574	-0.003179806	-0.024529962	-0.0113546075	0.12341858	0.052633684	0.061829355	-0.19126731	0.054634243	-0.12581651	0.056528226	0.15276241	-0.04881246	0.14913233	-0.00064495223	-0.14521843	-0.039567366	0.10549949	-0.15896623	-0.15532787	-0.06578129	-0.031134583	-0.017758125	-0.041863646	-0.15870929	0.058224555	-0.16354944	-0.036397714	0.0025199158	-0.10478741
BRIX1	0.08442969	0.010302606	-0.13469623	-0.08999902	0.10137029	0.08426984	-0.11515803	-0.12031039	0.10117742	-0.07337085	-0.072635695	0.009022394	0.050938096	-0.052684095	-0.1307238	0.054543264	-0.08212993	-0.022902278	0.1145366	-0.06507351	0.110871844	-0.027525054	0.06940738	-0.18434197	-0.044633415	0.013298853	0.008820169	0.13401344	0.19111328	-0.067265965	-0.016313896	-0.18464093	-0.0948008	0.13241416	-0.01499591	-0.11981854	-0.09246572	-0.005253829	-0.021577269	-0.025122238	0.14279152	-0.073392	-0.031358507	-0.011740696	0.04516577	-0.035047486	-0.027194485	0.0036087655	0.06123799	-0.012156739	0.08078767	-0.100257	0.06861161	-0.07235671	0.0023647398	0.07668462	-0.09650823	-0.010800387	0.12448313	-0.017968772	-0.0036947553	0.07269552	-0.0827117	-0.022525601	-0.11210786	0.052545108	-0.08810533	0.088059455	0.018366622	0.09704533	-0.13655797	-0.1587675	-0.12191923	0.11086791	-0.098020606	0.051145025	0.08135492	0.044804223	-0.021633573	0.06590166	-0.023531796	0.06443998	-0.10800611	0.10991859	-0.12731856	0.047688592	-0.17184582	-0.028172433	-0.032466516	-0.16737872	0.025092067	-0.048637804	-0.1026375	0.017923769	0.04738538	0.07564746	-0.15792026	-0.14591366	-0.030930374	-0.086676754	-0.026558384	-0.031375892	-0.15591212	0.10488705	0.13278887	-0.056520715	-0.12639679	0.09849881	-0.09788182	0.016669337	0.02381404	-0.09278402	0.032959636	-0.07902544	-0.1449538	-0.061457	-0.08005619	0.036405556	-0.10332652	-0.17959505	0.043718576	0.01588181	0.078486145	-0.026201526	-0.004803432	-0.09856114	0.060788058	-0.13829058
BUD31	0.12659863	0.014681518	0.05035273	-0.11395646	0.05505729	0.028821962	-0.1463174	-0.0144762285	-0.14508033	0.007848848	-0.24521686	-0.015998669	0.0907239	0.12052646	-0.06205586	0.07124883	-0.07988189	-0.09590026	0.17611648	-0.08077291	0.059666917	-0.00555221	0.04197856	0.008544254	0.023418387	0.024009906	-0.027222559	0.11464571	0.071209036	0.052667737	0.040216226	0.029888047	-0.21133594	0.07506317	0.12207902	-0.079330444	0.0050204727	0.018820742	0.093933865	-0.15846825	0.05155634	0.023032777	-0.11217771	-0.036410823	0.08661776	-0.056383513	-0.022170605	0.04820247	-0.17986424	0.13884954	0.11894304	0.01840616	0.040035453	0.0803763	0.037926942	-0.0526235	0.0167866	-0.03976477	-0.05199355	0.06139951	-0.0485834	-0.011300169	0.001161993	0.15113568	-0.022523282	0.05319916	-0.033553574	-0.060922485	0.031337455	0.060644858	-0.15890679	-0.16919973	-0.012219069	0.12546043	-0.21354082	0.0049503474	0.1488015	0.061604716	-0.0015100032	0.033845525	0.16172671	0.17984948	0.101367846	0.058452405	-0.08397029	-0.09353769	-0.06798944	-0.02790009	-0.061966572	-0.020431561	0.06247251	-0.03330103	-0.02174238	0.042045932	0.085823365	-0.005313647	-0.041514274	-0.05055145	0.050270677	-0.050687436	-0.07872714	0.081595175	-0.004319298	0.11109177	0.05968525	0.11248081	-0.14027058	0.151038	-0.1551179	-0.15302925	0.07064697	-0.11811901	0.0026016901	0.053632453	0.01725088	-0.09991622	0.04003351	0.09626861	-0.04355556	0.08252659	-0.02466353	-0.031099224	0.1543986	0.009455518	-0.009385778	0.050210115	-0.09194939	-0.023801936
C19orf47	-0.123545945	0.08283084	0.036583666	0.090053774	-0.0206601	-0.08385426	0.05223989	-0.0011530407	0.06317486	0.012661553	-0.035590127	0.07909591	-0.1429764	-0.03501095	0.08641972	-0.09858091	0.1134474	0.05167042	-0.003352388	-0.06999375	0.045271326	-0.043279003	0.09871689	0.022017632	-0.034148283	0.040455263	0.100359276	-0.19898653	0.019814206	-0.11073771	0.020570062	0.05786327	-0.012655889	-0.0064550815	-0.10316498	-0.06446061	-0.007013542	-0.14075018	0.035979263	0.042826712	-0.025117693	-0.08390895	-0.14387403	0.10893138	-0.07953615	-0.14185257	0.08669354	-0.0076858113	0.0041190605	0.064900964	-0.090549044	-0.024037449	0.030817889	0.04346211	-0.14245506	0.110019006	-0.085471675	-0.0023431766	0.09986436	-0.115675494	0.061805382	0.18126976	-0.02624778	-0.04872253	-0.031780712	-0.03262077	0.05723067	0.057611898	0.101471014	-0.010444476	0.042704824	-0.033322345	0.019488676	-0.07454074	0.17985876	-0.03802917	-0.07671741	0.1712706	0.004773324	-0.11231433	-0.15266463	-0.07687319	-0.045621686	0.03688728	0.056526955	0.09938667	0.11126627	-0.07071098	0.15553083	0.118264176	-0.041568264	0.0223807	-0.07941951	-0.040139515	-0.2383859	-0.0103200115	-0.10660716	-0.102349125	0.0981361	-0.06805871	-0.05806239	0.013802517	0.16645877	0.03389477	0.10961117	-0.14795262	0.021287508	0.031489104	-0.02468284	0.1825845	-0.07004396	0.16038306	0.16510835	-0.06496125	-0.061464526	0.059645005	-0.07469852	-0.08625659	-0.0773276	-0.008186821	-0.011205021	-0.11279262	-0.16491485	0.09839465	-0.018077446	-0.08674693	0.100391656	-0.036896437
CAB39L	-0.0060041603	-0.007854388	-0.12794395	-0.09501275	0.0443699	0.09202361	0.100168645	-0.07656388	-0.17465363	0.12374233	-0.004506676	0.119056866	-0.026367761	-0.07085249	0.12017397	0.034752082	-0.1993476	0.113122284	-0.17269917	0.09065194	-0.016486144	-0.014735191	-0.08156677	0.07623069	-0.08764272	-0.031833842	-0.03995326	-0.056571443	-0.11230232	0.0008839532	0.14174172	0.19814073	-0.06853291	0.029792491	0.0903996	0.054696675	-0.0980384	0.036212027	0.13526443	0.040430978	-0.12793893	0.016863218	0.0068153287	0.055000536	0.11450767	-0.05507916	-0.13392164	0.16353214	-0.065078266	-0.029578593	-0.1057196	-0.068627805	-0.075423405	0.08319948	0.05181525	-0.01673082	0.017193876	-0.054630574	0.033073463	-0.011066405	0.05722139	0.0011035728	0.027241435	0.017056651	0.119374245	0.014195486	-0.049279843	0.047724325	-0.17573953	-0.0639145	0.044520676	-0.1397013	-0.0969879	0.091612585	0.08174665	-0.018378349	0.026607862	-0.069927655	0.10982952	-0.023257948	-0.098539755	-0.12185457	0.08977135	0.08560496	0.032569654	-0.03231761	-0.014614639	0.009055974	0.061381895	0.08424058	-0.17605923	-0.1589015	-0.058604266	-0.075220115	-0.13057281	0.036872797	0.14958188	0.03951533	-0.15719926	0.050870705	0.07902843	0.15590893	0.2831173	-0.024668908	-0.036762223	0.0004792264	0.086369745	0.011844846	0.013463583	-0.13694544	0.04364398	-0.045717306	0.06182337	-0.086836316	-0.021041086	-0.026845427	-0.015782056	0.041450936	0.032500066	-0.061739188	-0.009915038	-0.13690698	-0.072848886	0.028849917	0.02621671	0.08493604	0.030106895	0.033056792
CACYBP	-0.06704362	-0.025151696	0.06026494	0.010775496	-0.024270087	-0.089958146	0.049733702	0.015474124	-0.012326919	-0.026993375	0.07493008	-0.026831351	0.097813696	0.09889731	0.10834487	0.046679955	-0.068679504	-0.09083995	0.10473011	0.08021236	-0.11800636	0.08800648	-0.049908523	0.11407808	-0.03679544	-0.0977596	-0.061760854	0.06817992	-0.09993707	0.19720389	-0.12150494	0.09440664	0.15077838	-0.035096038	0.050239306	0.09892373	0.020221187	0.16453888	-0.008740168	-0.07908469	-0.046858	0.04799028	0.07929036	-0.15203439	0.013255916	0.05275868	-0.095237635	0.10057573	0.09989656	-0.170716	0.06880452	0.007014593	-0.07415028	-0.08400206	0.07697334	-0.062379763	0.11689749	0.119913004	-0.08676078	0.006414458	-0.038403064	-0.013796533	0.039641976	-0.06812427	0.013053199	-0.11054022	-0.0711062	-0.15442811	-0.012776149	0.066552185	0.07573314	0.064041466	0.12102575	-0.070746444	-0.11634664	-0.08785356	-0.06972864	-0.15323697	-0.022523515	0.070972614	0.00040960347	-0.015076894	-0.009407575	-0.14980426	-0.13467951	0.034870833	0.021997334	0.090739116	-0.06455728	0.012444006	0.10983705	0.018976077	0.21847227	-0.009375475	0.09597152	-0.040507864	0.020960713	0.11685276	-0.093759105	0.09747976	0.013815125	-0.09290198	-0.015398906	-0.122517146	-0.1668051	0.16145255	-0.029179586	0.009882039	0.04561853	-0.08470142	0.072413296	-0.006495418	-0.14546117	0.07380452	0.12066218	-0.11704568	0.056838848	0.12527522	0.11022312	0.11177217	0.03236987	-0.10193536	0.0058058216	-0.09849737	0.111590184	0.08040872	-0.056794245	0.13973089
CALCOCO2	-0.04689341	-0.012194628	0.09737997	0.06315168	0.06285467	-0.05772136	0.16413009	0.07795308	-0.03250847	-0.111013025	0.13298868	0.070705526	-0.15496951	0.003806037	-0.07749766	0.055617575	0.15959981	-0.031872272	-0.060766306	-0.21155262	0.037800368	0.22703311	-0.044699162	-0.04074276	0.056196585	-0.0717658	0.08374338	-0.1047816	-0.08773761	0.034065712	0.14007539	0.05255538	0.056754388	0.08710325	-0.12465375	0.03008373	0.07809054	-0.12689975	-0.06637772	-0.15547012	-0.09952398	0.0024440598	-0.12894785	0.13552524	-0.117479794	0.093959086	0.116195224	-0.20191449	-0.10151733	0.12727225	-0.059139773	0.0420402	-0.015401435	0.0040409993	-0.106501415	0.052082304	0.10686792	-0.025615225	0.010291798	0.09320373	-0.11088144	0.040596835	0.010934377	-0.041432	-0.037697785	-0.00081555214	0.122656316	-0.029675901	0.08126619	-0.0021084046	0.049856987	0.11372031	0.11311354	0.03715679	0.010246369	0.061510865	-0.0941737	0.09338266	0.05339595	0.0010368414	0.0018929995	-0.13281803	0.1066074	0.02276918	0.05506707	-0.012157605	0.10657969	-0.06128394	-0.09044323	0.05542301	0.055571936	0.10684411	0.10857693	-0.1255423	-0.090135396	-0.10892522	-0.047885306	-0.0014166349	0.14071023	-0.046262983	-0.037544277	0.035121147	0.016668685	-0.059585676	0.026586918	0.0143984305	0.0017616361	0.035338096	0.17414753	0.035578046	0.010888876	0.061594747	-0.05524649	0.13128734	-0.03064873	0.122586474	0.18956162	-0.06495678	0.05182988	0.0707879	-0.04177798	0.14002417	-0.10379044	0.036478136	-0.039051987	-0.12072148	-0.01912402	0.040230002
CAPRIN1	-0.030122254	-0.07232488	0.092231	-0.023293179	-0.056946684	-0.025395146	0.01234623	0.09528353	-0.017039448	0.0053854096	0.06657783	-0.033367172	0.032959245	0.0056055	0.20102103	-0.062982865	-0.04537899	-0.09828553	0.040466696	0.06408841	-0.12344311	0.0126056075	-0.13694477	0.07692474	0.022859622	-0.013601803	-0.035593364	0.0542586	-0.06995318	0.17847383	-0.10393999	0.0446086	0.1499085	-0.06804631	0.040662777	0.09222196	0.0037592857	0.1208471	0.034877975	0.08356309	-0.11505098	0.06934399	0.18779077	-0.16629876	0.0069608903	0.11408081	-0.10742628	0.11660187	0.049478434	-0.14720623	0.011895087	0.038225338	-0.046844825	-0.01376412	0.06679371	-0.058050297	0.1887506	0.09163397	-0.11023288	-0.05852956	-0.04420291	-0.10437229	-0.0064238557	-0.037604433	0.0032628628	-0.15099692	-0.008070073	-0.13660568	-0.06575391	0.055357866	0.07698753	0.018553594	0.08337469	-0.09741691	-0.046222836	-0.050443236	0.005632666	-0.12885225	-0.045779735	0.019491881	0.008706438	-0.12540591	-0.045215048	-0.14110264	-0.060165863	-0.00031156657	-0.00908522	0.1917502	-0.09137037	0.038756277	0.035789415	-0.07395328	0.12412504	-0.025042173	0.16932946	-0.026824838	0.087074734	0.12750903	-0.1372661	0.13482662	0.06407159	-0.08389169	-0.03862178	-0.08602757	-0.1774	0.07172927	0.05801326	-0.16036844	0.10847808	-0.1404705	0.017181333	-0.018738609	-0.10196267	-0.01855135	0.09498761	-0.0015549157	0.048588987	0.077185296	0.13205978	0.067123204	0.04999921	-0.07237306	0.032674387	-0.08276473	0.091487005	0.11803875	-0.044160184	0.12205644
CAV1	0.014397341	0.097059146	-0.087938786	-0.063925296	0.030859478	-0.094019	0.13704756	-0.055132076	-0.18240304	0.11579797	-0.09498799	0.20857897	-0.059617117	0.006633971	-0.0026125528	0.12192083	-0.07846143	0.026370412	-0.05960021	0.03611985	-0.005745063	0.023935834	-0.01592642	0.028713923	-0.18287963	-0.08728435	0.0008936274	-0.057206694	-0.02801583	-0.0036176573	0.22535583	0.17217459	-0.0785682	0.03917231	0.082353696	0.0009841574	-0.07288656	0.07339637	0.1902036	-0.17501709	-0.11929568	0.029758824	-0.12779956	0.025689742	0.10241954	-0.105441675	-0.09163756	0.052225325	-0.08290493	0.02386819	-0.0074875825	0.017046958	-0.100449614	0.05117064	0.1404399	0.030792367	-0.09575132	-0.031062353	0.072406195	-0.07743084	0.12177118	0.067521244	0.08416801	0.07359722	0.12717831	-0.07136587	-0.08331654	-0.015443479	-0.12434414	-0.060167804	-0.024389777	-0.10793243	-0.0006449644	0.09778892	0.022205621	0.0028402635	-0.11769112	0.019531865	0.049722835	0.020930892	-0.08014947	-0.017913133	0.16895285	0.087092	-0.025174735	0.07182907	-0.023187086	0.004613529	0.02647055	0.00998293	-0.12033982	-0.03206721	-0.014541615	-0.066768266	-0.06366455	-0.12527527	0.052065413	0.053774886	-0.013056583	-0.02045067	-0.05757143	0.19057027	0.16875371	-0.0709901	-0.014518781	0.093881674	-0.09941284	0.1678284	-0.11167757	-0.13131328	0.171489	-0.107429996	0.040992495	-0.0058105704	0.07934314	-0.048678875	0.09760796	0.07054052	-0.03777969	-0.007287766	-0.024332939	-0.1340133	-0.055837926	-0.022951087	0.035904385	0.038489103	0.021793686	0.11496412
CCDC59	0.07248193	-0.103242435	-0.14876418	-0.09186305	0.13394085	0.07866944	-0.08083748	-0.020216005	0.027922409	-0.054117408	-0.028303605	0.013076178	-0.0019829355	-0.04982244	-0.09120331	0.027622702	-0.05608379	0.00570148	0.062467545	-0.09000417	0.12922403	-0.06672356	0.09848234	-0.13138737	-0.0922457	-0.030225163	0.058575075	0.08042606	0.16089714	-0.05665213	0.06476987	-0.11756075	-0.10323909	0.13577068	-0.028439987	-0.06291016	-0.07571693	-0.045621987	-0.07897568	0.074708246	0.093829855	-0.09542046	-0.053570017	-0.062380534	0.06486522	-0.0030385617	-0.07354767	-0.053096514	0.012577361	-0.006310059	0.10888385	-0.18723853	0.09148841	-0.014956167	0.020126104	0.12240654	-0.05945924	-0.0006510647	0.08753562	0.010316916	0.036929596	0.007964192	-0.0828791	-0.06934797	-0.20595692	-0.015103587	-0.120752394	0.104941435	-0.06462726	0.07889381	-0.16823442	-0.11791224	-0.07796373	0.13698141	-0.030776864	0.059781592	0.16568105	0.035378147	0.13823502	0.037092686	-0.0056940145	0.016442161	-0.054951936	0.12376623	-0.09640302	0.024765734	-0.10866206	-0.120200075	0.01631576	-0.021101916	0.070478514	-0.09708165	-0.10586573	-0.09134059	-0.042328518	-0.05734208	-0.15130861	-0.25683856	-0.003035744	-0.0403523	-0.059510272	0.046724167	-0.08476066	0.1118424	0.05701072	-0.1355598	-0.11523896	0.07205455	-0.042985357	-0.0075827776	0.05618567	-0.05421347	-0.06333412	-0.13091789	-0.10093011	-0.07389862	-0.028708957	-0.021737015	-0.0953718	-0.1415898	0.011662316	0.092029154	0.040476255	0.06407805	-0.029788436	-0.09272283	0.13149886	-0.15505965
CHCHD2	-0.013852507	-0.051613253	0.113176264	0.08714289	0.17996183	-0.0114653045	0.11015699	-0.1011745	0.022993006	-0.084231034	0.08024894	0.048338868	-0.15217185	-0.049873523	-0.13421069	0.1137229	0.05053915	-0.09008398	-0.055991028	-0.14320183	0.045612235	0.16459054	-0.119594514	-0.10960185	0.12629226	-0.0131459255	0.12713085	0.058215022	0.078802176	-0.13702051	0.028859403	-0.13712779	-0.10068456	0.11348317	-0.10692536	-0.12094187	0.03182186	-0.0041778646	-0.02315259	-0.12815776	-0.008123094	-0.078404	-0.061793234	0.10193458	-0.14969675	0.049564146	0.1510456	-0.17580736	-0.11414667	0.13423319	-0.12029666	0.17038704	0.017356953	0.023686728	-0.06713193	-0.004259139	-0.0036638977	0.017082682	0.09889372	0.12175983	-0.12860966	-0.0007029171	0.025145741	0.07461416	0.08099043	0.10335362	0.07760565	-0.07505435	0.13941747	0.0063723098	0.09668157	0.0008087519	-0.008935037	0.014460334	0.041869327	0.16693832	-0.07764821	0.055235133	-0.04726823	-0.013352	-0.012656494	0.006905152	-0.0029295315	-0.01043058	0.029829131	-0.01837938	0.015542357	-0.00033395868	-0.04427898	-0.038929697	-0.075962715	0.107226565	-0.026440028	-0.055216186	0.05880378	-0.047343872	-0.07117014	0.07408195	0.06453099	-0.101077944	0.05739848	-0.12348387	-0.15188855	0.019326694	0.074334525	0.036770243	-0.005013167	0.10155287	0.10863846	0.103523925	0.0601044	-0.06384058	0.017725777	0.029242983	-0.117889054	0.19854122	0.09307314	-0.057084046	0.05014131	0.10124271	0.08268729	0.1866638	-0.018824227	-0.06853232	0.085172504	-0.07600916	-0.017865874	-0.019878197
CHD4	0.08295276	-0.023108654	0.031757396	-0.033090357	0.022368884	0.05520241	-0.086093545	-0.049494755	-0.07282336	0.05997621	-0.1393978	-0.16420904	0.17527804	0.13559884	-0.19136004	0.1495502	-0.058752295	0.055898614	0.17190838	-0.023905523	0.17316909	-0.05234445	0.062208515	0.0072520147	0.041440107	-0.15743658	-0.02941245	0.11581619	0.029618625	0.037556745	-0.047442116	-0.044215307	-0.1083174	0.050415322	0.10798432	-0.066373646	0.026121138	-0.03752036	0.021164773	0.017098507	0.08182023	0.057984017	-0.15819836	0.0056266217	0.02924122	-0.04966189	0.024981527	0.091781564	-0.08558615	0.04406773	0.14139502	-0.0010043151	0.1314514	-0.0029016386	-0.05540589	0.0809564	0.07173085	-0.060634986	0.027523253	0.096728995	0.09861469	0.0034247325	0.10169912	-0.0047140387	-0.012570315	0.045346152	-0.005830299	0.14825502	0.016915223	-0.0012671164	-0.046939526	-0.10542753	-0.105919324	0.07778163	-0.047734063	0.0006247406	0.19658239	0.059655294	-0.014708722	0.03835804	0.2357093	0.15945317	-0.006220237	0.112054914	-0.015903935	-0.15966731	0.0071358616	-0.16167325	0.019110324	0.04775328	0.20721793	-0.000892405	0.018290384	0.061411273	-0.06952743	-0.06584154	-0.03923323	-0.16837661	0.047216214	0.008556499	-0.083074674	0.007069263	-0.036806595	0.11223723	0.0009256711	0.020046635	-0.08551019	0.1358555	-0.03309493	-0.055847257	0.0063042967	-0.052529663	-0.010594598	0.01546579	-0.032566916	-0.16040498	0.043388356	0.06494655	-0.099194564	-0.061417982	-0.094091445	0.068288125	0.13668248	0.038467217	-0.09714821	0.041383285	-0.17798913	-0.043579422
CLIC1	-0.12533541	-0.16672513	0.078672186	-0.034900494	-0.027352337	-0.10182732	0.067993134	0.035327654	0.058992136	-0.044161987	0.08950149	0.011568969	-0.012611573	0.073117614	0.15123996	0.067398734	-0.019447438	-0.06257064	-0.0420231	-0.08351188	-0.10762667	-0.025600987	0.005853322	0.12645383	0.041601744	-0.21190646	0.0034591118	-0.0010356446	-0.1258571	0.1601838	-0.04885586	0.0849891	0.08660521	-0.020356579	-0.008340316	0.16168551	-0.027054887	0.03627405	-0.10476583	0.052704863	-0.067621805	0.04336923	0.072367735	-0.107006796	0.015176156	0.051060557	-0.14043854	-0.03607831	0.06834377	-0.14881654	0.010119298	-0.14432584	0.008479365	-0.010576355	0.019785434	-0.02663968	0.08017601	0.18941735	-0.112199865	0.13001141	-0.19474678	-0.093266375	-0.02068799	-0.08666156	-0.10793993	0.01008937	0.055779524	-0.08363991	-0.0764971	0.09687621	0.06683904	0.05734881	0.040041152	-0.052975368	-0.019140115	-0.1209795	-0.0017915587	-0.16600242	0.11606902	-0.0051030517	0.06497929	-0.10405859	0.023442654	-0.13215758	-0.11601243	-0.024742307	0.13505559	0.012657416	-0.057696745	0.15272188	0.06692179	-0.10835828	0.1536283	-0.1423937	0.020741574	-0.112930626	0.023389993	-0.01950543	-0.045563508	0.1491132	0.043173715	-0.048650075	0.13106218	-0.0777066	-0.14328787	-0.02086005	0.08465646	-0.063603364	0.073566325	-0.05645653	0.054998714	0.07214478	-0.2008303	0.11497479	0.023162127	-0.07245145	0.0076291524	-0.03182253	0.12498126	0.09488338	0.015245518	-0.016562214	0.021419251	0.0033995707	0.08804874	0.066322125	0.012603202	0.05843472
COX17	0.03487415	-0.033366993	0.088845626	0.028375858	0.1764103	-0.024294661	0.13640404	-0.07667825	0.05128239	-0.09171803	0.07648638	0.10905152	-0.16498052	-0.05420812	-0.087037124	0.09744437	0.05087574	-0.079412974	-0.040290594	-0.17500222	0.083847106	0.18571402	-0.05047061	-0.14347036	0.11868812	-0.036001332	0.121985905	-0.0033003024	0.100122415	-0.16509856	0.0696798	-0.09654454	-0.138895	0.10945939	-0.10676421	-0.11137504	0.02993701	-0.03554877	-0.05393823	-0.14475338	-0.009978401	-0.08636199	-0.0905435	0.116415426	-0.11170764	0.004653833	0.13761371	-0.19298984	-0.12018917	0.16186093	-0.12505895	0.15915358	0.0013356269	0.010101348	-0.08251733	0.0006347585	0.005448527	0.0025015436	0.11312406	0.12761943	-0.1458301	0.048228182	0.019717084	0.044334445	0.04152509	0.10035576	0.047994222	-0.07569743	0.14830251	0.00757008	0.06744306	0.03373778	-0.0043090694	0.0272968	0.049407832	0.15684408	-0.060036186	0.042990703	-0.037925716	0.015447392	-0.047774583	0.0065619256	-0.009540213	0.005068231	0.02636669	-0.05535824	0.0018329696	-0.014838486	-0.016475076	-0.034329496	-0.09917874	0.09799158	-0.038599826	-0.06771398	-0.012313905	0.005137526	-0.06485151	0.036035504	0.070497006	-0.08501987	0.07854679	-0.07574726	-0.116026394	0.0067042583	0.13184914	0.028817844	-0.032745764	0.09206991	0.0966727	0.12512794	0.069193445	-0.041031107	0.059918903	0.037509724	-0.07617129	0.17618339	0.097337104	-0.09569923	0.06268603	0.058678985	0.034110382	0.1817065	-0.052628834	-0.027655546	0.071267284	-0.11602202	0.044481933	-0.045258086
CTNND1	0.07296175	0.10250892	-0.17101415	-0.12494719	0.08919803	0.042098206	0.044061653	-0.054358467	-0.19912249	0.12845679	-0.059124116	0.07520125	-0.052756935	-0.026896892	0.029090393	0.04139377	-0.14119509	0.10505504	-0.03086635	0.048518002	0.018423319	0.016259387	0.001797205	-0.018703945	-0.23099472	-0.0047025844	-0.13686372	0.0146131	-0.052584913	0.08170838	0.0434884	0.11710354	-0.079181366	-0.029653318	0.1422254	0.09706483	-0.15428728	0.08261048	0.11707417	-0.13625984	-0.054237586	-0.012255764	0.026878206	-0.08615433	0.14221172	-0.019909991	-0.16336833	0.14635147	-0.0077266246	-0.08352224	-0.067005396	-0.08955953	-0.08963563	0.025635432	0.13277775	-0.07358002	0.0070809172	-0.005751589	0.07674621	-0.17519109	0.10997978	-0.008914226	0.03686189	0.027938226	-0.029928321	-0.03191272	-0.06794896	-0.045190472	-0.22891703	-0.012545697	-0.043264206	-0.16039392	0.017961679	0.09698273	-0.115573	0.04163885	-0.06301943	-0.05542828	0.015888976	0.03438261	-0.15327783	-0.16171819	0.055191956	0.022618288	-0.047313176	0.05801399	-0.04037886	0.05784486	0.04049469	0.0462575	-0.108425915	-0.08119021	0.008375691	-0.07702166	-0.009620956	-0.09850037	0.0878415	-0.01686593	-0.12964433	0.10648934	-0.03853377	0.1936052	0.1048522	-0.1302667	-0.051301092	-0.05414872	-0.078769535	0.017076029	-0.056061972	-0.0022516365	0.16995081	-0.12780298	-0.014580567	-0.08811671	0.011557339	-0.04433849	0.07128537	0.102196015	-0.008384053	-0.08256379	0.01590494	-0.049984045	-0.039336674	-0.0886381	0.00038853314	0.07274047	0.016092377	0.036645748
CYCS	0.092425674	0.04767796	0.10739021	0.019451771	0.1004057	-0.051557492	0.13734657	0.08122207	-0.12044487	0.0113124065	0.094799876	-0.051515616	-0.09849854	0.08153089	-0.129914	0.1101445	-0.01134779	0.057956498	-0.057757683	-0.07139091	0.075047426	0.18147981	-0.009206625	-0.03984808	0.13888866	-0.12071404	0.101308405	-0.055752847	-0.10145495	-0.02923528	0.15344715	0.026644321	-0.0975769	0.05108099	-0.07365001	-0.027198521	0.06028977	-0.0022005872	-0.06695742	-0.21879706	-0.008773338	-0.060832415	-0.119801655	0.15382053	-0.058056246	-0.01579245	0.09584694	-0.21413982	-0.15617707	0.156436	-0.06582459	0.10585991	-0.085752554	0.08863027	-0.054047145	0.035064176	0.0620808	-0.103357516	0.072927505	0.018322313	-0.076734304	0.011588834	0.034178767	0.066188194	0.028644446	0.07565696	0.06517781	-0.08077156	0.0520198	-0.11298174	0.067712165	0.091366425	0.068111345	0.033352118	-0.023030424	0.07425264	-0.10352882	0.025472883	0.123326235	0.010720315	0.0292013	-0.016525164	0.12202429	0.024142023	0.0808861	-0.14603056	0.042725503	-0.079725355	-0.039079797	0.017772287	0.011259336	0.13951531	0.09056208	-0.103585094	-0.12830581	-0.09765162	0.040419612	0.05374813	0.13344203	-0.0464632	-0.03636057	0.13100421	0.0129726315	-0.061140794	0.01680004	0.023281146	-0.109778434	0.025835395	0.067998916	0.027824234	0.11595741	-0.01939818	-0.07678143	0.07556036	-0.0032379506	0.1179842	0.17887054	-0.05956397	0.032417398	0.11155906	-0.019587073	0.23022334	-0.081671	-0.019145446	-0.13139264	-0.053002015	-0.06663147	0.001297799
DCTN1	0.012724078	0.032656312	0.17853174	-0.013178987	-0.057945255	0.0070712147	0.014279287	-0.096881464	-0.12869807	0.08982554	-0.192782	-0.049807772	0.10179714	0.12868206	0.070732936	-0.024009602	0.020508839	0.041719165	-0.018407373	-0.120266326	-0.02228366	-0.089113176	0.0404881	0.106871106	0.07044858	0.12113081	-0.0731792	0.03257799	0.060276676	0.07287697	-0.050175298	0.0059068836	-0.09495735	-0.06736436	0.012748771	-0.024081673	0.044186927	-0.062610894	0.118649065	0.0404407	-0.0058526434	0.1654491	-0.05795668	-0.0064417487	0.0024312106	-0.06112845	0.06299949	0.05462779	-0.082421206	0.17557314	-0.005276769	0.066990994	0.08940005	0.098634385	0.0200771	-0.08771717	0.16248284	-0.19154544	-0.066129126	0.009015171	-0.03789895	-0.09563287	0.072369404	0.19207397	0.194808	0.085891046	0.08140417	-0.032511763	0.049982384	-0.08389513	-0.07955129	-0.053842764	-0.06426168	0.013911556	-0.046304133	-0.17571053	0.023474365	0.052237876	-0.17019272	-0.033796057	0.03691058	0.078285836	0.059901785	-0.059251368	0.04946897	-0.06234829	0.082726926	-0.02484124	0.113602996	0.029172257	-0.117160484	0.10071472	-0.045784045	0.14957446	0.074004784	0.1150451	0.054282513	0.16141173	0.049564984	-0.029146243	0.10050515	-0.036228985	-0.01678973	0.10426986	-0.05359007	0.09058456	0.13976468	-0.07303951	-0.004422249	0.014851109	-0.04135913	0.024870945	0.11593976	-0.14988187	0.009685177	0.0978986	-0.04408145	-0.042508405	-0.098765954	0.09307431	-0.0716288	-0.13933305	0.13347097	0.01920585	-0.02888118	0.16274425	-0.15724704	-0.08790131
DDX18	0.0946745	-0.08717372	-0.0957442	0.030780936	0.13307874	0.06904955	-0.13852277	-0.07813725	0.06900631	-0.12952086	-0.057477254	0.015998885	0.07086509	-0.064712875	-0.07697225	0.038630996	-0.08369538	-0.056631707	0.08291226	-0.06278396	0.07525632	-0.044000875	0.030636076	-0.12696297	-0.0125804655	0.059115242	0.029999001	0.13936408	0.2145592	-0.070529625	-0.04129878	-0.117120236	-0.06918837	0.14207335	-0.022027055	-0.13091071	-0.09815955	0.00016779381	-0.019751143	0.01564449	0.17753859	-0.08684303	-0.0011760929	-0.058852285	0.03883493	0.0095127635	-0.0050055687	-0.016439604	0.071050785	-0.0024693853	0.055740446	-0.08125129	0.08271136	-0.0657208	0.009764061	0.07228898	-0.070681706	-0.002129026	0.111772284	0.027010446	0.0052157394	0.062416516	-0.064291656	-0.0121649075	-0.08998951	0.035560265	-0.11787893	0.059143726	0.050509427	0.07388472	-0.1401447	-0.14803872	-0.14131947	0.09737911	-0.07676556	0.051627696	0.11303617	0.015483884	-0.021956196	0.0700696	0.0060132826	0.081895985	-0.09703959	0.104741655	-0.122154765	0.034948025	-0.16978213	-0.07727102	-0.0015388387	-0.17672938	0.070162125	0.006201935	-0.11559802	0.036010303	0.14433958	0.056969285	-0.17382632	-0.10218506	-0.05470847	-0.10798575	0.010416002	-0.07608276	-0.16955744	0.10885124	0.116146535	-0.04979575	-0.08419135	0.10123229	-0.09054473	-0.015504276	0.05366863	-0.13469812	-0.0006227938	-0.101995245	-0.14469656	-0.07861349	-0.107939616	0.018829126	-0.12416209	-0.16994509	0.02569947	0.05334886	0.12842937	-0.048392903	0.011910767	-0.057810076	0.07364349	-0.13182461
DDX5	-0.07792194	0.018115083	0.08520016	0.11503778	-0.056483615	-0.04682443	-0.005972948	-0.11040143	0.07067011	0.048071668	-0.15325078	-0.070692256	0.09512392	0.11107609	0.025488071	0.022952024	0.057235643	0.022070164	-0.09366999	-0.025402207	-0.0035310155	-0.12544346	0.052198377	0.1213317	0.11227206	0.059800647	-0.12274356	0.04804882	0.04952309	-0.005035712	-0.11936065	-0.009035142	-0.050212972	-0.043207966	0.029370148	-0.022698434	-0.038687326	-0.13004275	0.12655717	0.090950124	0.07872177	0.19492477	-0.107837915	-0.008575801	0.050912436	-0.07637448	0.07509519	-0.0030163138	-0.054519106	0.10577848	-0.05193881	0.037282843	0.2048549	0.10339539	0.04151885	-0.09893537	0.096857496	-0.060270406	-0.112298116	0.13766849	-0.03517128	-0.09425369	0.117646486	0.10618743	0.13819976	0.11161335	0.08257277	0.085806854	0.053358868	-0.05713654	-0.08523934	-0.024344087	-0.10474269	0.015642768	0.021461248	-0.1414459	0.06692114	0.054811593	-0.21084866	-0.09387359	0.13283029	0.10088449	0.06435547	-0.05739161	0.044295404	-0.06653047	0.080060124	-0.11025127	0.096189946	0.0041250167	-0.024397945	0.10455598	-0.011064443	0.04022947	0.05543772	0.1726229	-0.007910023	0.033962548	0.06548616	0.036584012	0.13862221	-0.09820824	0.017094074	0.09215704	0.022379251	-0.016540118	0.19806702	-0.029704455	0.014749488	0.045088112	-0.06976893	0.03354992	0.07306337	-0.025231343	-0.019851405	-0.04549202	-0.12387342	-0.12512812	-0.10776161	-0.0075551304	-0.14174488	-0.1257645	0.12641136	0.101866856	-0.02825918	0.122649424	-0.14841929	-0.08437119
DDX56	0.098514676	-0.1676104	-0.114827946	-0.026494006	0.15901123	0.0877495	-0.14095378	0.13520698	0.046101265	-0.12879795	0.017687697	-0.023549037	0.0049508368	-0.09519178	0.0011643867	-0.041196562	-0.13381593	-0.040865887	0.03254129	-0.039297834	-0.020948863	-0.01003515	0.021761615	-0.08046768	-0.08683513	0.028028002	0.10469416	0.040821627	0.09726074	-0.058678485	0.06184371	-0.022611346	-0.051706452	0.13411897	-0.043784868	-0.04277316	-0.049903594	0.059510715	-0.10276102	0.024482347	0.114216834	-0.16017231	0.06678799	-0.09916305	0.073557325	0.0033088329	-0.10938209	-0.12399192	0.034876462	0.014621417	0.07155897	-0.18384375	0.012130393	-0.0018863454	0.03812322	0.09492619	-0.105688855	-0.022524426	0.06365581	0.017584562	0.0102521125	0.011365499	-0.16134354	-0.033661883	-0.18210301	-0.021464495	-0.13056909	-0.027764406	-0.07030205	0.07439151	-0.09294417	-0.042981915	-0.0477866	0.11432408	-0.056691945	0.087744944	0.09138516	-0.07955463	0.23184454	0.06860619	-0.0122267	0.062421758	-0.047689307	0.12419153	-0.12770739	-0.0015057847	-0.13253266	-0.12284601	-0.03797555	-0.09759054	0.07868938	-0.031135583	-0.09348548	-0.081777	0.06094799	-0.031806365	-0.11692947	-0.12662867	-0.009351151	-0.051746123	-0.030590419	0.09017004	-0.0819061	0.05349543	0.07879354	-0.06269316	-0.12990117	0.013886475	-0.114545934	-0.13640735	0.13533331	-0.08798684	-0.11013992	-0.12411762	-0.03379815	-0.1307608	-0.10266387	0.011692169	-0.0128487665	-0.16651027	0.006446528	0.08642048	-0.0032715495	0.027151208	-0.03682235	-0.053846948	0.1406318	-0.15382591
DHX15	-0.093081884	0.121101566	-0.058278475	0.081428386	-0.047263663	-0.089040875	0.055542346	-0.014623618	0.02907237	0.012456693	-0.03108681	-0.08436585	-0.067972526	-0.04578699	-0.027335733	-0.07229518	-0.013527005	0.109537	-0.03411331	0.09855114	0.023543643	-0.0851206	0.16864705	-0.0407076	-0.032505065	0.106886506	0.07304215	-0.09234808	0.0352504	-0.14421947	-0.082643285	0.047958616	-0.031848174	-0.0010604742	-0.17775206	-0.11100714	0.0065846764	-0.022746392	-0.019961897	0.060440898	0.13388892	-0.09058181	-0.087138064	0.03175268	0.0198586	-0.1339737	0.07966553	-0.08851949	0.02424875	-0.044255044	-0.10734359	-0.054889195	-0.018162597	0.023507304	-0.043346353	0.009743153	-0.1650427	-0.049944263	0.13266845	-0.17341006	0.065438725	0.08864911	-0.062400863	-0.07536489	0.0085999835	-0.00023402974	-0.007940184	0.035611212	0.032814804	-0.090458244	0.096627906	-0.0025310754	0.010076968	-0.03809147	0.13289957	-0.08334288	-0.12359481	0.07278354	0.040591974	-0.08595717	-0.1751436	-0.06592098	-0.05773015	-0.010997115	-0.02291787	0.16343017	-0.04542173	-0.05712835	0.15641072	-0.07593127	-0.050988045	0.034255605	-0.06164367	-0.07205621	-0.1598971	0.083548486	-0.12660508	-0.053908195	0.05937741	-0.100273855	-0.03166368	-0.04987455	0.07111566	0.09076061	0.13481276	-0.16904436	-0.034285586	-0.008440959	-0.05950277	0.15636948	-0.02377528	0.102827	0.041987505	-0.19751316	-0.080608316	0.04469525	-0.22735377	-0.115579	-0.14774163	-0.10978668	0.06391712	-0.07993487	-0.16470224	-0.0047413474	-0.11239078	-0.07213229	0.056179214	-0.10711239
DHX35	0.13719824	0.010072351	-0.024926428	0.022392102	0.080753244	-0.030843088	0.007254183	-0.09718116	-0.14130671	0.04533483	-0.043813527	-0.10299551	0.15883203	0.09987131	-0.14121017	0.23025438	-0.16301563	0.014318983	0.0019232521	0.06447178	0.0890591	0.0393462	-0.05210819	0.035459198	0.052372985	-0.095685154	-0.122752935	0.1930904	-0.0058620814	0.13435346	0.037246563	0.017158851	-0.017645217	0.09582979	0.08265141	0.011207536	-0.11809746	-0.037952766	0.048026066	-0.18981197	0.12812245	0.011664385	-0.04816093	0.0037012699	0.086140946	0.00815494	-0.050627403	-0.004085566	0.0333061	-0.032124937	-0.02351823	0.01655867	0.009804126	-0.015559189	0.14598577	0.02245033	-0.016155051	-0.003401126	0.1458208	-0.0105226785	0.036523927	-0.0408455	0.08779553	0.09825094	0.08317114	0.067606635	-0.08068957	0.026639974	-0.06419915	-0.01761428	-0.088962995	-0.11477143	-0.08593675	0.14499022	-0.18484837	0.009439478	0.046592	-0.034868337	-0.081932776	0.04062476	0.10622545	0.017415121	0.07884655	0.024084644	-0.033640698	-0.028467083	-0.11901717	-0.096449494	-0.063531175	-0.11453833	0.08304537	0.15632321	0.081187405	0.031666763	0.12896667	-0.008663096	-0.046901654	0.040882874	-0.047506567	0.05298899	0.0040264013	0.05638521	-0.045241076	0.024754776	-0.0051110648	0.119215526	-0.046657797	0.15612952	-0.03687198	-0.11001288	0.19437778	-0.1390592	-0.102894	0.042420216	-0.105749875	-0.08673126	0.04069617	0.07241547	-0.095228985	-0.11547277	-0.029755868	0.041947253	0.17099044	-0.21228696	-0.038386043	-0.0017640298	-0.15834932	0.01787031
DNAJC7	-0.063607536	-0.104583986	0.0984242	0.040429693	-0.050232902	-0.11649342	0.028839158	0.032714993	0.025542159	0.0058565876	0.10563538	0.028855488	-0.028284388	0.08234059	0.16358222	-0.01111486	0.03461801	-0.023059674	0.030743862	-0.045328256	-0.080803305	-0.02089102	-0.062125262	0.13819875	0.02102029	-0.13553068	-0.06484066	0.028080516	-0.1395848	0.19508867	-0.13445368	0.035720322	0.13663942	-0.13667579	0.062265716	0.20550813	0.025680315	-0.028454203	-0.024591586	0.06445951	-0.10907676	0.020293694	0.09161294	-0.1167387	-0.028259657	0.11861167	-0.11093703	0.049786642	0.071577646	-0.11197492	0.03318035	-0.012173144	0.0037892542	0.017111778	0.00015865045	-0.062922195	0.12722245	0.16601975	-0.14948477	0.02185556	-0.12522462	-0.06647898	0.03386043	-0.047261104	-0.031608693	-0.029198583	0.08635989	-0.05665518	-0.059797835	0.06080592	0.018947583	0.046604108	0.031056797	-0.0802064	-0.065904506	-0.09671189	0.049913425	-0.13167593	-0.0495904	-0.0032069483	0.038269825	-0.06952931	0.031246018	-0.14799096	-0.010195795	-0.02056465	0.15955395	0.074816816	-0.03830964	0.20765649	0.03921101	-0.051059343	0.1707683	-0.01886472	0.0808834	-0.044533547	0.05467007	-0.00013131861	-0.05883981	0.1701982	0.03740353	-0.06773275	0.10346307	-0.15876712	-0.20021482	0.0677494	0.10115185	-0.08991395	0.0816856	-0.032599103	0.001607605	0.055415023	-0.12600656	0.13610134	0.09893002	-0.017986424	0.13527526	0.02644724	0.14706701	0.14296979	-0.034020245	-0.013830479	0.04957727	-0.02418805	0.085616805	0.109466136	-0.017019022	0.11115829
DUSP11	0.07355592	-0.021181261	-0.052297883	-0.052244656	-0.04414181	0.0060051265	-0.05410809	-0.115884185	-0.031088449	0.011001672	-0.09083015	-0.08239011	0.16396001	0.062106855	-0.09943912	0.2048106	-0.069730066	-0.060348723	0.093965314	-0.036011435	0.13024129	0.028537605	-0.003928666	0.004545776	0.007140026	-0.16244073	-0.11199604	0.147621	0.10367295	0.09724363	-0.011299683	-0.031371027	-0.06622056	0.08943872	0.14403528	-0.058764983	-0.06618037	-0.09291852	0.075721756	-0.10855466	0.113799475	0.09932341	-0.1311104	0.013274542	0.06283096	-0.012158099	0.025098339	0.0907869	0.084636524	0.0035358875	0.11725336	-0.0031680476	0.032044593	-0.04040718	0.0080156345	0.054840628	0.02458134	-0.0020449145	-0.06805492	0.118599124	0.067318216	0.02337113	0.1240826	0.038301654	-0.037826017	-0.03501631	-0.11437772	0.03346706	0.062223576	0.06788499	-0.140391	-0.1536937	-0.09828129	0.0816122	-0.10823486	-0.07369106	0.08723231	0.02654601	-0.1501472	0.057205755	0.11543876	0.13288735	0.008738856	0.0685723	-0.08717699	-0.0023598238	-0.077436425	-0.02850175	-0.07083757	-0.11447175	0.22275874	0.027544005	0.06854023	0.0787612	0.09057291	0.04462889	-0.07774218	-0.024671739	-0.03848175	-0.008957671	-0.08676685	-0.06354255	-0.049654655	0.078803375	0.00053687324	0.08045318	-0.059352394	0.19000095	-0.12245045	-0.074495316	0.09336881	-0.08639094	-0.020622035	0.086111315	-0.06203495	-0.2471959	0.012311776	0.13332081	-0.15118288	-0.09813217	-0.041063305	-0.07655015	0.15667191	-0.07272413	0.031061688	0.02034394	-0.122642644	0.02442185
DYNC1I2	0.07221512	-0.17434429	-0.0118653	-0.15956447	0.12721136	0.21690102	-0.14228079	-0.076585695	0.07170473	-0.13733259	-0.0076810764	0.022715623	0.074888416	-0.067097686	0.0059071593	0.03360435	-0.050104294	-0.062434517	0.09979928	-0.21496394	0.03094079	0.006933011	0.037358895	-0.096957535	-0.01908422	-0.007411526	0.0058797905	0.17359164	0.19499716	0.031040559	0.049152393	-0.1311293	-0.09399239	0.09982257	0.029827572	-0.038131155	-0.10020542	-0.0005309009	-0.07171618	0.016439429	0.03917657	-0.053071808	0.07325654	-0.05923286	-0.020331383	0.07218253	-0.06419149	0.040184863	0.06956851	0.04657727	0.14081071	-0.14922307	0.088273704	-0.07756326	-0.02033665	0.100198284	0.085922875	0.0011911589	0.041662104	0.09626597	-0.10407633	-0.0018041119	-0.10263229	0.038041603	-0.13481677	0.017816247	-0.09647944	-0.008520033	-0.008168682	0.15988585	-0.15560977	-0.13166896	-0.098206274	0.12545922	-0.1699644	0.017115103	0.15858507	-0.018856898	0.00066620955	0.14576954	0.06795179	0.093347944	-0.11492878	0.095754735	-0.122773364	-0.04992393	-0.08140627	-0.012958773	-0.03842145	-0.018681973	0.045206767	-0.09598426	-0.10318174	0.10532009	0.12898353	0.0521307	-0.08403744	-0.10275335	-0.07915615	-0.013005482	-0.023037544	-0.04831993	-0.11503693	0.076449215	0.002269633	0.046573848	-0.040631942	-0.042942043	-0.08579266	-0.08166162	0.004723481	-0.07531169	-0.012155777	-0.040844906	-0.09927808	-0.032805085	-0.0019479229	0.038108505	-0.015833147	-0.07042261	0.0064449124	0.05348412	0.15469047	-0.087684944	0.07394947	-0.013907885	0.09921636	-0.15109636
DYNC2H1	0.011300836	0.014464146	0.13206074	0.023618855	0.08119204	-0.118288055	0.16134492	0.06547902	-0.0007881671	0.011603812	0.13675418	0.01694389	-0.16246727	0.041470665	-0.0973625	0.10817578	0.06689274	-0.024858499	-0.037574194	-0.10246743	0.066886604	0.17101903	-0.044270735	-0.009218733	0.113488026	-0.18893449	0.14285478	-0.07697866	-0.054912407	-0.0043641953	0.18216409	-0.033832125	-0.037903465	0.044093635	-0.06812379	-0.052637506	0.111268386	-0.08100493	-0.08824448	-0.13555668	-0.0682572	-0.038529433	-0.14990722	0.14202207	-0.12466364	-0.032496516	0.11423851	-0.17986755	-0.116067894	0.1688803	-0.010732892	0.11950067	-0.029077671	0.07473639	-0.11705845	0.097586304	0.06951495	-0.012497546	0.008236991	0.10344368	-0.046480693	0.02320142	0.064665936	0.024893599	0.025630392	0.031563222	0.06538508	-0.07570694	0.10271708	0.00047533138	0.07066799	0.11872203	0.074910104	0.006205366	0.065625794	0.09642348	-0.06387495	0.056246676	0.070609495	-0.031565215	0.05473959	0.019824078	0.13050225	-0.0059903623	0.10089356	-0.12707616	0.11280937	-0.02600974	-0.05365092	0.08367842	0.061129093	0.092044726	0.082586974	-0.07072684	-0.1270414	-0.115798846	0.0017201557	0.03450757	0.1581041	-0.048149902	-0.04663719	0.029018646	0.007620759	-0.04705138	-0.010223695	0.029583555	-0.059686117	0.06278362	0.076379195	0.055308238	0.07016886	0.044216976	-0.03581609	0.14630058	0.003465872	0.091923825	0.1899865	-0.05484865	0.058802187	0.19456458	-0.038406353	0.16525756	-0.11011523	0.043840993	0.019043176	-0.09118035	-0.006961751	0.052053466
EEF1E1	0.025981577	0.06830637	0.10621435	0.024005296	-0.08048487	-0.0057365657	0.014139534	0.029088305	-0.0044017234	0.15803027	-0.070551366	-0.116748765	0.118587844	0.13911423	0.004124593	0.0011901956	-0.007323957	0.17690438	-0.13558449	0.09898897	-0.059858084	-0.1598661	0.05702391	0.13788375	0.09345207	0.00022354632	-0.1237589	-0.008110222	-0.12062935	-0.0043150927	-0.10497377	0.049235363	-0.011070043	-0.15894231	0.053406756	0.064726636	-0.0840292	-0.03300286	0.021551434	0.10369281	0.04438777	0.13636069	0.01866357	-0.012824086	0.078766726	-0.05861301	-0.054522604	-0.023616202	-0.06678301	0.064742185	-0.083124325	0.06465471	0.12224298	0.15543653	0.121522605	-0.09664132	0.07443243	-0.1051635	-0.1108699	-0.017966425	-0.04248279	-0.22125673	0.09156408	0.16675834	0.063773006	0.09671424	0.11978776	0.043757997	-0.08674921	-0.12829475	-0.028103054	0.056225386	0.0017000481	-0.0026504106	-0.05621388	-0.12671395	0.03525469	-0.0521479	-0.039550196	-0.08342492	0.07538438	0.06336883	0.09171357	-0.04911112	0.13386518	-0.15413247	0.10362964	-0.035107937	0.12175168	0.15590687	-0.056185424	0.03847202	0.032942556	-0.0059143007	-0.078193925	0.032806788	0.121615924	0.02973903	0.06030108	0.15765195	0.0638077	0.106748685	0.08865471	-0.017436046	-0.10280435	-0.010252714	0.13800418	-0.13890798	0.05924626	0.01711409	-0.04060981	0.063146956	-0.008835833	-0.03977604	0.044980507	0.05176827	-0.0016945947	-0.087295756	0.025954433	0.08034298	-0.17554788	-0.037029654	0.06414216	0.08813928	-0.11336974	0.14057288	-0.0975741	-0.028887386
EEF2	-0.12792602	-0.07575198	0.022166314	-0.076991186	-0.015164698	-0.028081957	0.11954266	-0.021866772	0.08190082	-0.044294268	0.098686	0.08602483	-0.08522272	-0.027218748	0.11846055	-0.04638481	0.015297622	-0.09012126	0.015201458	-0.05089249	-0.17450751	0.042659998	-0.042308573	0.0028036735	-0.079885095	0.03485845	-0.0010371832	-0.0050710016	-0.025159737	0.12648444	-0.07546152	0.023300312	0.10201182	-0.056009136	-0.07451884	0.15031455	0.046202783	0.16183028	-0.052365646	-0.01576823	-0.13084915	0.059862707	0.17960635	-0.1581813	0.021088718	0.09061975	-0.104311705	-0.0116530815	0.039435875	-0.08968714	-0.0066122725	-0.04586865	-0.098362766	-0.06587432	0.04731479	-0.12073756	0.067574725	0.15066254	-0.06330513	0.06181386	-0.14215657	-0.06171318	-0.048850153	-0.12481277	-0.056465622	-0.05363486	0.047764204	-0.16052479	-0.08880038	0.043643404	0.14216398	0.06311648	0.10528504	-0.06710381	-0.008282841	-0.06706172	-0.087887324	-0.16855043	0.044927567	0.062394556	-0.0628187	-0.17108329	-0.034097258	-0.16419888	-0.14967836	0.0737903	0.08602691	0.11056347	-0.08432609	0.056487888	-0.09750269	-0.09283614	0.0931202	-0.08988061	0.054135878	-0.014632623	0.12768184	0.08358949	-0.101867184	0.085805036	0.15188536	-0.09746621	-0.02691857	-0.14766748	-0.10499699	-0.004284745	0.031542514	-0.16250697	0.046503324	0.02484176	-0.0310982	0.07246011	-0.10301737	0.014468174	0.1138559	0.029194038	0.037204035	-0.035623483	0.16895032	0.044350322	0.12868251	-0.0078062285	-0.06291512	-0.035433855	0.118745	0.08520985	0.0779955	0.03939356
EIF2S1	-0.08629241	-0.081281185	0.034341708	0.032489665	0.017361868	-0.08428387	0.1419469	0.0055110594	0.036717784	-0.048881337	0.12638804	0.07335112	-0.021646198	0.08951681	0.045905884	0.111089796	-0.139615	-0.03782534	-0.07219696	-0.043609507	-0.16097651	0.13698107	-0.05948213	0.10357098	-0.052849904	-0.13349031	-0.060307723	0.010118146	-0.09932972	0.10715421	-0.031152971	0.15188646	0.08674461	-0.020309165	-0.02058248	0.15346256	-0.042309992	0.13398238	-0.0072915084	-0.14613223	-0.12857394	0.024435177	0.009944382	-0.14126244	0.03159142	0.062278647	-0.07214298	-0.113689646	0.020674244	-0.03855218	0.02167486	-0.011435354	-0.046598908	-0.031435087	0.20391329	-0.052563135	-0.04562863	0.07261554	-0.079463184	0.06253068	-0.14496689	-0.07137313	0.068900906	-0.0028306746	0.06407312	-0.001393408	-0.07066124	-0.1378499	-0.118366174	0.0046358313	0.10860329	0.11840732	0.05565488	0.025958914	-0.047568355	-0.1118985	-0.08737169	-0.20875165	0.01951067	0.032215122	-0.03203824	0.0011674014	0.08260864	-0.11319754	-0.078086585	0.07326193	0.056218017	0.02018393	-0.094454624	0.0029711395	0.0040933583	0.06420293	0.19722377	-0.13330826	0.10982261	-0.0061630025	0.016801625	0.12362015	-0.06060396	0.07848337	0.04517889	-0.07733125	0.044023536	-0.15558316	-0.123820156	0.13804603	0.015454681	0.044166584	0.0749924	-0.08498302	0.16540526	-0.0036136035	-0.18388903	0.0979688	0.14340295	-0.027724335	0.0820313	-0.05347952	0.1332072	0.04272371	0.010558931	0.019834671	-0.0062473137	-0.12235839	0.08607978	0.082354575	0.00022735367	0.055084385
EIF3G	0.006279732	-0.06384178	0.055902503	-0.066468775	-0.06824974	0.08105591	-0.090945974	-0.03208162	0.06160159	-0.11572679	-0.015846962	0.098408684	0.03052729	-0.078781486	-0.036431555	-0.03668513	0.1543668	-0.1621396	0.22474766	-0.07547082	-0.03847126	0.103923984	-0.098143734	-0.07485021	0.015519126	0.037872892	0.10334973	0.008834955	0.096739635	0.05268615	-0.019960823	-0.13016108	0.08792437	0.032435317	-0.029847711	-0.070039965	0.1572355	0.08623522	-0.033437643	0.04168911	-0.06748175	-0.038864635	0.11294688	0.016891083	-0.16453096	0.09937084	0.0589161	0.14543986	0.09468854	-0.033681165	0.10888403	0.072226696	-0.057146046	-0.16812296	-0.10638731	0.07765382	0.06342305	0.040803954	0.021766432	0.027433667	0.019396927	0.17335846	-0.090485945	-0.11607292	-0.00402961	-0.15775445	-0.00700198	-0.05380431	0.13416289	0.06128853	0.03481548	-0.046262473	0.039430726	-0.13994674	-0.004901098	0.021700878	-0.020388652	0.10113245	-0.07217734	0.13060935	0.084382184	-0.010585471	-0.17838053	0.040212106	-0.09596064	0.06330232	0.01646713	0.12191884	-0.089759246	-0.010833632	0.04410798	-0.11282794	-0.04020584	0.21910924	0.091702394	-0.10895569	0.031266488	0.065316156	-0.054460805	-0.09473489	-0.056638207	-0.16622078	-0.16902877	0.03129038	-0.033324946	0.12943353	-0.08535367	-0.029738009	-0.044717133	-0.016868709	-0.13317282	0.030605502	0.087837525	0.0147277815	0.018513873	0.07280329	0.069800414	0.13712235	0.03929726	0.07790872	0.1335833	0.016689213	0.033055216	-0.1277385	0.07718539	-0.015813299	0.025501499	0.093325794
EIF3L	0.083661534	-0.00092575967	-0.17982529	-0.06188911	0.11884137	0.074986264	-0.09755547	-0.1268247	0.051564306	-0.09435446	-0.06514901	0.057365187	0.083882205	-0.040820014	-0.09991097	0.05665044	-0.065303095	-0.04992467	0.081964456	-0.06657727	0.10636862	-0.0017001316	0.030976301	-0.1385164	-0.13315915	-0.033277515	0.026027324	0.08697702	0.15386148	-0.03576657	0.019883651	-0.12071013	-0.06714707	0.15368438	0.014583084	-0.08034837	-0.06915222	-0.004051089	-0.0006785535	-0.01158584	0.09197756	-0.11197098	-0.082841195	-0.045041677	0.042066444	0.0036522993	-0.026286801	0.053044528	0.09153746	-0.03600582	0.109164774	-0.14921975	0.01130156	-0.093696326	0.046028346	0.082611814	-0.0944457	-0.00086379115	0.10782737	0.022362072	0.06823054	0.12820692	-0.068578996	-0.052792333	-0.113351546	-0.011116398	-0.13050857	0.06768827	-0.049787316	0.12224335	-0.15656002	-0.13646545	-0.12509477	0.10094696	-0.06982908	0.077826306	0.052495867	0.02313814	0.010044575	0.07641009	-0.046533845	0.055329647	-0.09504256	0.09419272	-0.12820068	0.07602137	-0.13394901	-0.08545623	-0.029956156	-0.17302091	0.06820557	0.006371194	-0.09598464	-0.014555802	0.057219196	-0.026756624	-0.15491442	-0.18932253	-0.0802397	-0.09973279	-0.04298773	-0.0037607907	-0.12510855	0.086416215	0.11213303	-0.041498564	-0.14507759	0.1497698	-0.12026167	0.0135278925	0.069212124	-0.11121483	0.0037533385	-0.07882953	-0.058481406	-0.122429825	-0.049260672	0.06820653	-0.09270065	-0.19912401	0.05884386	0.035121106	0.046377525	-0.049304813	-0.016036028	-0.10181545	0.073426306	-0.10563671
EIF4G1	0.010379627	0.044204343	0.01065369	-0.11188555	-0.09173301	0.07178359	0.024934579	0.01537392	-0.0074434537	-0.07974807	0.034106806	0.047440905	-0.012748182	-0.079614274	-0.026720585	-0.08848251	0.044958673	-0.04942026	0.1603432	0.018096525	-0.061094377	0.09851747	-0.065657325	-0.09578705	-0.043097034	0.038964905	0.09887337	-0.09426155	-0.034814585	0.0275262	-0.00930494	-0.030346718	0.08290297	-0.005389047	-0.12952922	-0.012962015	0.16674165	0.10552923	-0.12703608	0.023915406	-0.04380782	-0.1257633	0.116883524	0.04941009	-0.12460203	0.13955384	0.039166626	0.12259091	0.08341952	-0.085288264	0.014281632	0.014600662	-0.21294235	-0.13247909	-0.10436491	0.05889459	-0.031008562	-0.033931296	0.113209955	-0.14061841	-0.0011214075	0.16455813	-0.16497481	-0.14361632	-0.055049893	-0.12260568	-0.021355147	-0.065118484	0.0039386996	-0.018364942	0.119457796	0.062469713	0.058550343	-0.16799834	0.01819906	0.0295183	-0.13205421	0.014348663	0.05165773	0.12129963	-0.067150675	-0.12431645	-0.1566759	0.025144348	-0.04798332	0.07764577	-0.015541911	0.14843397	-0.045213044	-0.050564796	0.01942261	-0.14091365	0.015542245	0.09879676	-0.044803385	-0.13787374	0.073897876	0.0013134776	-0.09361936	-0.11347513	-0.08516425	-0.06741488	-0.07329551	-0.033215582	-0.012010032	0.06103786	-0.13090536	-0.07400677	-0.0008207329	0.038216002	-0.14791359	0.08608968	0.04411084	-0.04074692	0.050311927	0.11163641	0.0454688	0.100447975	0.07676619	0.05957877	0.21540724	0.07320028	-0.11476186	-0.18718253	-0.05362775	-0.06997322	0.056985687	0.050722104
ELOA	-0.08457844	0.0056011295	0.081984825	0.12312635	-0.10434278	-0.1320325	-0.034369513	0.21965921	-0.008585087	-0.061030295	0.022116654	-0.047652334	-0.036558144	-0.042229958	0.07086026	-0.063454226	0.06822737	0.020922711	0.04257968	0.07306954	0.012443495	-0.040592153	0.12936497	0.028826594	0.11283317	0.08193871	0.15793906	-0.17666623	-0.0070286165	-0.10869079	0.044603348	0.1444105	0.06893735	0.064015135	-0.18152952	-0.094390646	0.03275712	-0.040252265	-0.043469198	0.0032241927	0.03068876	-0.14766179	0.0011490739	0.07874068	-0.048822816	-0.12315348	0.053318236	-0.100289166	0.02506672	-0.051121913	-0.07236194	-0.009373863	-0.03425292	-0.030348562	-0.11977998	0.1670944	-0.13894282	0.033494387	0.15665607	-0.1729142	0.111063935	0.15155914	-0.07795604	-0.096324764	-0.00702546	-0.12671721	0.0012947597	0.055659845	0.18085307	-0.09049218	0.15171029	0.03721995	0.09242432	-0.071778595	0.13001724	-0.0062020286	-0.07385155	0.104203224	0.14994037	-0.086457014	-0.031640083	-0.08204603	-0.010770829	0.021642324	0.01022579	0.099626176	-0.048936773	-0.055221353	0.05473704	-0.0065397886	0.08333301	0.055541594	-0.050931968	-0.03756864	-0.14854643	-0.04494234	-0.11310415	0.00974398	0.17171255	-0.099391565	-0.119381785	0.02293561	0.08816691	0.11076536	0.11038205	-0.11372795	-0.06421239	-0.011383296	-0.035605438	0.020437676	-0.019174188	0.12500274	0.015333714	-0.032575123	-0.08105729	0.08431871	-0.15987341	-0.061212894	-0.09124596	-0.07307367	0.020716581	-0.049076058	-0.061451875	-0.04099933	-0.029820463	-0.10168601	0.03700567	0.0069697644
ENO1	-0.1426633	0.033432897	0.0119258985	-0.05002688	-0.03640197	-0.053121153	0.06247999	-0.022865497	0.054786768	-0.04595074	0.050347764	0.090063654	0.029977312	0.07934254	0.117027014	-0.060404558	0.012831977	-0.04850377	0.0841319	0.04686076	-0.17232122	0.08264123	-0.018726133	0.077444166	-0.13203636	0.04609657	-0.09281104	0.02450747	-0.09961429	0.114060454	-0.072030716	0.054921605	0.12531865	-0.12373269	0.030441007	0.16026147	0.048929475	0.20629422	0.023197485	-0.14971578	-0.14945179	0.03399319	0.11419291	-0.12152932	0.06719331	0.024127996	-0.06195158	0.043942	0.055912197	-0.09971778	0.07426737	-0.00033589627	-0.10053011	-0.06292464	0.102483496	-0.1459121	-0.0046660053	0.10324666	-0.15424311	0.033295535	-0.08215118	0.022898998	0.01633351	-0.06627341	-0.011140026	-0.07833603	-0.01148375	-0.15335712	-0.03307315	0.007749718	0.07311792	0.10430867	0.1734224	-0.08178664	-0.10027992	-0.09679493	-0.0912448	-0.100192375	0.010289645	0.034953088	-0.06105587	-0.015658757	0.016079932	-0.14714052	-0.10571966	0.100148425	0.08274299	0.11574091	-0.045176394	0.06376413	-0.07430717	-0.0071121487	0.16225183	0.012735588	0.073803246	-0.0043763067	0.0958472	0.09312531	-0.051410273	0.06394898	0.043866094	-0.031451214	-0.010938123	-0.2254857	-0.14336154	0.10377242	-0.042160388	-0.08322271	-0.035961866	-0.0028831211	-0.053887244	0.029105112	-0.036479786	0.108208925	0.22871085	-0.026046105	0.1226449	0.04814887	0.15710601	0.090177655	0.048624743	-0.07123941	-0.029398812	-0.035496283	0.11951591	0.090291604	0.028620368	0.0779917
EWSR1	-0.025983304	0.043459028	0.0337089	-0.012024209	-0.064003974	0.047368582	0.08778659	-0.08209137	0.03822068	0.076477684	-0.13361017	-0.08573591	0.15100737	0.1484784	-0.039306864	-0.017539382	-0.05444535	0.11528718	-0.08982998	0.056177184	-0.0666381	-0.13038827	0.06273932	0.06494281	0.017797045	0.029130487	-0.112335384	0.019949758	-0.047396343	0.01613034	-0.14384341	0.020929353	-0.039176423	-0.12725809	-0.011099969	0.053628325	0.023833374	-0.013674921	0.010117632	0.11056945	0.04203019	0.16248617	-0.044234656	-0.08467506	0.09665155	0.03921377	0.045807205	-0.033315096	-0.17289235	0.053610984	0.027059264	-0.07761663	0.13315046	0.066239856	0.10190143	-0.17829913	0.067169264	-0.14287451	-0.15032667	0.11430524	-0.0459292	-0.19501892	0.06876307	0.06278499	0.09240256	0.19232883	0.04894031	0.091074355	-0.1587977	-0.09520636	-0.032237057	0.08333173	-0.13757153	0.054824658	0.022634653	-0.13512239	0.0764718	-0.018214678	-0.0735234	-0.06861658	0.13860932	0.097227044	0.058144372	-0.044409323	0.0089383405	-0.14172606	0.053239178	-0.07482842	0.08172067	0.028795555	-0.051173184	-0.008698623	-0.0010476942	-0.0330675	-0.003511439	0.12744544	0.1390348	-0.0833396	-0.02083415	0.06710361	0.20825657	0.020376272	0.019536745	0.0042789346	0.017038528	-0.046531577	0.15091372	-0.087320514	0.07136514	0.027980167	-0.15677461	0.022447227	0.014940507	-0.071039274	0.10979072	-0.01951186	-0.07655632	-0.12415546	0.023104057	-0.00019300244	-0.069475956	0.034916848	0.017569395	0.1455819	-0.10655054	0.12831283	-0.098694876	-0.11563776
FAM204A	0.1586611	-0.008383067	-0.089469716	-0.056268517	0.057284493	0.030607207	-0.1401411	-0.120268606	-0.10452503	0.068774976	-0.08943129	-0.06359798	0.10821115	-0.02254682	-0.18566075	0.19906156	-0.029220155	0.0129288845	0.08200476	-0.05619269	0.15810108	0.01764282	-0.058346897	-0.0013243223	-0.005112746	-0.13588645	-0.029533943	0.0874146	0.037809677	0.012617926	0.06840447	-0.087966435	-0.10739641	0.07985596	0.16233832	-0.06371059	-0.040882446	-0.048323132	0.07471211	-0.07227778	0.14855394	0.03619525	-0.107544295	0.1053083	-0.0018930124	-0.09498973	-0.02816908	0.120450795	-0.017499411	0.11384965	0.08263856	0.07461985	0.013795468	0.030905234	-0.020537172	0.12438499	-0.041674804	-0.028425276	0.08503646	0.080340184	0.102003716	0.013921493	0.06909184	0.09170986	0.017125964	0.019326003	0.0054704687	0.093539566	0.051727712	0.10302037	-0.085032605	-0.17287369	-0.114969626	0.10221937	-0.09071108	0.10352988	0.097375706	0.04392579	-0.03449106	0.051189758	0.110972755	0.16261084	0.027490549	0.14822307	0.016534815	-0.08454253	0.008014013	-0.09487251	-0.010799695	-0.021259984	0.13614507	0.014540293	-0.049470536	0.14125824	-0.038094036	-0.057398863	-0.009204297	-0.009055374	0.0044846972	-0.024061922	-0.15650001	0.0062629636	-0.0075580147	0.064077936	0.009783846	0.12172072	-0.07082056	0.21617588	-0.13204338	-0.07664788	0.13327754	-0.111791946	0.02928717	0.08929034	-0.10583473	-0.09286157	0.090906255	0.18152969	-0.11234759	-0.016639497	-0.0718925	0.017070131	0.15122786	-0.04506681	0.0087447725	0.016802637	-0.09533378	0.0045486274
FAM98A	0.0020145623	0.0012089254	-0.09446622	-0.13279727	0.0234596	0.056578673	0.1447206	-0.09199646	-0.11068925	0.16325352	-0.019270897	0.13463879	0.01094049	-0.032248747	0.12893172	0.031291697	-0.18933861	0.104691826	-0.12459412	0.089178145	0.0026130897	-0.051998667	-0.095885545	0.092102595	-0.11470207	-0.115369275	-0.051090036	-0.06916982	-0.0991509	0.02435765	0.13631156	0.16297346	-0.014159424	-0.03424984	0.09621132	0.07349193	-0.08851808	0.016865188	0.1736374	0.05809743	-0.16137075	0.03068172	-0.025553737	0.028778374	0.11507655	-0.009855682	-0.12764026	0.16686343	-0.06964539	-0.00044396918	-0.012701217	-0.054573365	-0.109352626	0.09620094	0.095341265	0.026753424	0.013581764	-0.058747903	-0.024422398	-0.08981926	0.09129317	-0.019410426	0.081128076	0.06260254	0.1240916	-0.056116793	-0.057133507	0.047264673	-0.18560074	-0.026083345	0.00076871883	-0.097586215	-0.10078932	0.06633743	0.08340825	-0.08208073	0.034914628	-0.04963727	0.007744106	-0.04119035	-0.11871239	-0.049850006	0.083578296	0.07791947	0.055592004	-0.02727404	0.007538315	0.043046053	0.060033467	0.08921591	-0.102047324	-0.1583878	-0.010117986	-0.0119173	-0.14417604	-0.008861597	0.13632482	0.018483827	-0.16694683	0.055029128	0.020676032	0.14711443	0.2581296	-0.04849633	-0.1036594	0.022127854	0.06788659	0.045855295	0.03147847	-0.13049997	0.046109658	-0.015155767	0.09938748	-0.10597705	0.04700676	-0.016380882	0.072723076	0.06229932	0.03411421	-0.05140979	-0.011999974	-0.15445764	-0.056980297	0.029209523	0.05048923	0.09452173	0.042277183	0.082440585
FAU	-0.01939555	-0.080085956	0.04335816	-0.11664878	-0.054689687	0.06982903	-0.11293676	0.14343649	0.060503226	-0.10043922	0.10495105	-0.11039064	-0.039315265	-0.098296665	-0.053399414	-0.015330318	0.07286411	-0.021397661	0.20777625	-0.11102443	0.081390314	0.030515742	0.086166985	-0.09303737	0.046545688	-0.084078774	0.1462165	0.0069241365	0.022214627	0.053785022	0.06344906	-0.12434061	0.05866686	0.05197074	-0.065716766	-0.028050583	0.14928147	-0.004738719	-0.17127694	0.074899234	-0.0089299	-0.13498333	0.12532294	0.041428097	-0.15976365	0.05148261	0.0022475352	0.023498256	0.09505059	-0.055673093	0.16008945	-0.06684606	-0.06491848	-0.12348497	-0.17871201	0.18048772	0.008009891	0.05113138	0.095230885	-0.05334725	0.0030963905	0.054204438	-0.16263993	-0.14770949	-0.13992637	-0.100731514	0.0053473148	0.016223041	0.05319622	0.08923946	0.08867629	0.02659115	0.05014604	-0.048841577	-0.0025913634	0.092820674	0.049044326	0.039421186	0.13234548	0.08714469	0.07126676	-0.0435423	-0.16412833	0.052133434	-0.020469872	0.034581576	0.014263858	0.044330355	-0.10104034	0.02618303	0.14788064	-0.15097614	0.004744541	0.06674384	-0.083456784	-0.11758057	-0.022981018	-0.06633889	0.029965177	-0.05405418	-0.19395022	-0.09507035	-0.078816414	0.053277712	-0.062078536	0.0032068011	-0.14231876	-0.061279465	0.015101358	-0.016884472	-0.023232011	0.09617521	-0.10603074	0.052711178	-0.06816903	0.08238072	-0.008446943	0.08687002	0.024857692	0.09275657	0.12112288	0.14845778	-0.035012145	-0.061033428	-0.007397588	-0.12426783	0.07860725	0.019936359
FCF1	-0.03086867	0.040515527	0.038629703	0.0064289067	-0.035940357	-0.022164239	-0.026478535	0.017951034	-0.04580397	0.13750811	-0.14442925	-0.14023502	0.092058316	0.14328775	-0.024264926	0.019863829	-0.097401366	0.17062585	-0.09518243	0.06920426	-0.030644406	-0.14693506	0.0605938	0.13089366	0.08088575	0.024944706	-0.1382313	0.030802589	-0.09137978	0.015976282	-0.08134543	0.069479614	-0.085188225	-0.1190952	0.02456296	0.062654264	-0.0863573	-0.047087487	0.039100938	0.0255505	0.058920845	0.13895193	-0.0126256645	-0.008144961	0.14294085	-0.10966217	-0.039060213	-0.074355654	-0.10760199	0.1073977	-0.057042837	-0.042311687	0.15712059	0.18268949	0.11302707	-0.10458231	0.029584324	-0.13103652	-0.11225449	0.011089958	-0.08217498	-0.1993793	0.07373185	0.11589901	0.027623598	0.14744152	0.083442286	0.0689846	-0.10316044	-0.13727328	-0.040012505	-0.03381363	-0.015549691	0.081760466	-0.044756155	-0.16237001	0.11179153	0.004102622	0.019341819	-0.09821706	0.11038215	0.040733658	0.14043082	-0.03439873	0.05440181	-0.124963135	0.054420207	-0.099702656	0.08292556	0.116081506	-0.03917885	0.005173958	0.0108195795	-0.049279276	-0.056464512	0.13461873	0.09396847	-0.02423244	0.033150207	0.110249996	0.07901003	0.10669015	0.11940014	0.019476466	-0.019841231	-0.08986996	0.108911194	-0.09192378	0.017869433	-0.026268583	-0.0043029087	0.045901816	-0.025561575	-0.04451501	-0.022170775	0.002007596	-0.06364129	-0.11454372	-0.029107096	0.020796318	-0.15785675	-0.03204852	0.05996452	0.13356303	-0.13254382	0.13894685	-0.11314512	-0.10152763
FTSJ3	0.081825204	-0.018339634	-0.14374548	-0.053281926	0.15848973	0.09493058	-0.0704935	-0.09642521	0.06536791	-0.101758674	-0.051287252	0.028868154	0.040737584	-0.047112692	-0.10669249	0.01850783	-0.093199916	-0.0019497877	0.04856754	-0.04720231	0.08746727	-0.03277612	0.087215036	-0.16907713	-0.07135433	0.034436196	0.056748383	0.10077069	0.18403584	-0.10377638	0.052916843	-0.10836425	-0.10908341	0.121635966	-0.050739996	-0.12081308	-0.07055823	0.0037342643	-0.048457287	-0.0065605324	0.14105834	-0.112180054	-0.04530436	-0.016432425	0.07346688	-0.029276358	-0.0054126275	-0.086364165	0.014218472	0.038626257	0.089421056	-0.15242624	0.049665835	-0.01953496	0.039453596	0.0802927	-0.10057387	-0.044780064	0.11203034	0.00567794	-0.0072952104	0.078789264	-0.079273224	-0.011112022	-0.10475371	0.05948001	-0.12158851	0.052266672	0.0037190118	0.06722524	-0.15314348	-0.11388046	-0.10749272	0.14317185	-0.061354287	0.03821461	0.058062103	0.061425548	0.06074752	0.06726866	-0.033977035	0.10197649	-0.059522808	0.12539333	-0.13515146	0.005937653	-0.16735703	-0.12191007	0.034949902	-0.16900323	0.016713528	-0.0036670058	-0.127827	-0.0050524264	0.031967904	0.03486426	-0.16087648	-0.16629447	-0.017101053	-0.13064939	-0.02100441	0.049461238	-0.12659845	0.087754555	0.12617573	-0.08432624	-0.14619644	0.080592595	-0.10910748	-0.00522906	0.024664469	-0.116118625	0.019204754	-0.11564666	-0.10178638	-0.072563305	-0.08209147	-0.013648999	-0.105674654	-0.15940897	0.020289928	0.05029495	0.046645995	0.018634388	-0.027117534	-0.09233399	0.1094546	-0.1705755
GAB1	-0.0044200937	-0.08846683	-0.049619213	-0.011422533	-0.09417075	-0.05297167	0.120274976	0.14820197	-0.034740474	0.017426299	0.113980226	-0.012017956	-0.09014501	0.00035798977	0.111805074	-0.048240688	-0.030531742	-0.075097784	-0.01862208	0.05448673	-0.053432297	0.12167967	-0.05746908	0.07854596	-0.11481743	-0.0017599051	-0.055790726	-0.11863878	-0.15346466	0.09280564	-0.10495939	0.104927115	0.06273137	-0.032978002	0.022790007	0.15421782	0.07952023	0.03136658	0.01265026	0.100177735	-0.008680682	0.05873566	0.0050018085	-0.1367246	0.02456373	0.1286814	-0.09809212	0.00018848441	-0.009912584	-0.104665264	-0.012166347	-0.0010447433	-0.13000421	-0.061468907	-0.047111135	-0.16528104	0.116425	0.02527624	-0.09670297	0.004665693	-0.02723959	-0.11354329	0.010249569	-0.1609219	-0.06707997	-0.12231698	-0.009649227	-0.07553737	-0.18977849	0.031670388	0.07788458	0.12936158	0.010584794	-0.058705185	-0.03709271	-0.049227607	0.0316267	-0.17732859	0.027196743	0.03583838	-0.07550686	-0.14240597	0.040890094	-0.048240088	-0.04501112	0.06931737	0.021145845	0.049899336	-0.05448012	0.042025045	0.097502254	-0.07869711	0.18269184	-0.24543227	-0.047641903	0.0025379926	0.050390184	0.027738564	-0.068544656	0.12510732	0.06974297	-0.09571186	0.09343649	-0.08138774	-0.07441377	0.108129576	0.07897615	-0.023567142	0.13594124	-0.06777539	0.047790308	0.033277027	-0.1555695	-0.041918144	0.15032504	-0.12131479	0.023514213	0.09838618	0.13110207	0.03801926	-0.004911698	-0.058871936	-0.20874304	0.13625866	0.057618927	0.089930035	-0.046425372	0.06292232
GNG12	0.038616087	0.05859364	0.053969618	-0.07954049	0.049565338	-0.07868911	0.14201476	-0.025168639	-0.0036519642	0.010734104	0.10548928	0.058478467	-0.17101441	-0.032566257	-0.14058201	0.11557412	0.0889958	-0.011248359	-0.0143846935	-0.15652509	0.12199754	0.13344833	-0.04935704	-0.10085906	0.09292741	-0.17235075	0.110782176	-0.08671461	-0.028671026	-0.06669798	0.19751723	-0.095384166	-0.054318212	0.063042715	-0.06926895	-0.019657142	0.10544856	-0.11470965	-0.04967359	-0.13454923	-0.09712045	-0.06406684	-0.14873081	0.20880657	-0.1159633	-0.006340188	0.12562434	-0.10482305	-0.10679492	0.15756293	0.009169476	0.110400304	-0.07409404	0.043868057	-0.12244555	0.089765795	0.026136931	0.009490794	0.038686994	0.07039395	-0.059868798	0.08217659	0.058714263	0.0026161878	0.010649476	0.04326841	0.10284339	0.008360472	0.12057292	0.027599216	0.040498104	0.056382112	-0.009732861	0.0059368736	0.10091117	0.12117519	-0.09609833	0.081626974	0.024010038	-0.010545151	0.013514312	-0.033032615	0.07273424	0.04277371	0.098066345	-0.08986444	0.08034059	0.0034343954	-0.07622802	0.006621142	0.04978399	0.02405633	0.025919084	-0.0319549	-0.13957457	-0.12953435	0.013251381	-0.02085454	0.114466146	-0.1150011	-0.09300343	0.034984313	-0.0009851655	-0.057534844	0.04061948	-0.006133585	-0.079804406	0.110896006	0.041976344	0.120972574	0.018034026	0.0057016136	0.064316794	0.20074952	-0.06050155	0.1262037	0.21087003	-0.020273143	0.029838104	0.11728023	0.021397043	0.18076429	-0.051470254	0.00930085	0.027282853	-0.13467874	0.009388873	0.05372649
GNL3L	0.032277483	-0.22607571	-0.102987505	-0.0076295	0.10880032	0.12725163	-0.15246847	0.009847087	0.12682927	-0.16092983	0.0731751	0.03370971	-0.0011759124	-0.11878341	-0.095744014	0.047718413	-0.0010160329	-0.04991119	0.050131693	-0.15045705	-0.0052209906	0.02606128	0.10398726	-0.108648345	-0.053633034	-0.0060321577	0.09533674	0.1341082	0.16415527	-0.092467844	0.045928795	-0.09057302	-0.028510602	0.10116058	-0.058964398	-0.011612646	0.010250558	0.052091483	-0.11988104	-0.01881843	0.03186153	-0.110499464	0.093283996	-0.063737325	-0.022027677	0.05355532	-0.048945222	-0.19620663	0.062897556	0.07906534	0.19345145	-0.1393024	0.06464703	-0.040701825	0.06297073	0.09929377	-0.13689928	0.041081592	0.0075727873	0.16252099	-0.07325082	0.006976351	-0.113927364	-0.03967959	-0.112016514	-0.0052957647	-0.06076043	-0.0069615827	-0.027159123	0.064720586	-0.06958643	-0.04695317	-0.06553193	0.1585206	-0.0799526	0.053626418	0.11816113	-0.058175642	0.14096376	0.11928897	0.09648036	0.1572983	-0.063554466	0.10005644	-0.10853026	0.027012879	-0.065371424	-0.14675255	-0.06285142	-0.08877711	0.02491353	-0.050053403	-0.09554824	0.016981583	0.0895813	-0.012152428	-0.06880286	-0.09166395	0.01494407	-0.06762293	-0.04965922	0.013635904	-0.14079006	0.038601816	-0.016087452	0.015550512	-0.1158002	0.000753845	-0.113372184	-0.046745062	0.046838857	-0.062973656	-0.13217749	-0.007878087	-0.043601874	-0.029950455	-0.044862743	-0.046688337	0.012519977	-0.105380975	0.0073687905	0.16614679	0.074389815	0.00839962	0.02699106	-0.031501252	0.15738991	-0.13809772
GTF2I	-0.041676436	0.059306633	0.026623575	0.05649944	-0.07827685	0.010029777	0.007110882	-0.0414795	0.004282239	0.1532753	-0.14073822	-0.13997784	0.09112834	0.12818827	-0.007575578	-0.058183543	-0.012785126	0.210321	-0.053009134	0.086745605	-0.044519264	-0.19075143	0.023204908	0.12139576	0.07179622	0.04248587	-0.07298301	0.00092024915	-0.11436969	0.02829155	-0.0992487	-0.052292418	-0.0346181	-0.17563203	-0.013384827	0.08870265	0.019175455	-0.046032988	0.018099604	0.1216983	0.05356297	0.068486445	-0.03329661	0.0067500737	0.089075595	-0.07854278	-0.0048443805	-0.01444335	-0.12757987	0.10524712	-0.043151498	-0.025328169	0.11878297	0.17382455	0.08195771	-0.09276629	0.023455322	-0.09981179	-0.06454028	0.012730317	-0.02146773	-0.13205871	0.043127064	0.104431555	0.06475826	0.1789815	0.13708192	0.11441532	-0.102899805	-0.121691495	0.019082114	0.024827981	-0.08534511	-0.022411637	0.05146343	-0.084487356	0.08203433	0.015310213	-0.008858744	-0.122446395	0.1313119	0.038931645	0.06481631	-0.07578024	0.09959365	-0.15086427	0.15781456	-0.11799356	0.121277265	0.11628038	-0.055959243	0.054654177	-0.021071617	0.0523166	-0.1040291	0.044717435	0.11559492	-0.065171175	0.058648236	0.055862058	0.10724887	0.06418815	0.057471026	-0.0027019514	-0.05449016	-0.11741911	0.123477	-0.14509276	0.015283516	0.07635379	-0.09921345	0.08579828	0.06855404	-0.047198147	0.026679961	0.042249132	-0.058565438	-0.09864589	0.00046995174	0.053509492	-0.095957644	0.049982574	0.036961846	0.09924908	-0.15664606	0.13807425	-0.13144478	-0.12455883
H1-10	-0.00088372803	-0.12852259	-0.09529713	0.009955331	0.056476068	0.08616989	-0.08129003	-0.024571791	0.15436861	-0.10759619	-0.011790775	-0.07913788	0.0871922	-0.050906736	-0.05201215	0.05895697	-0.09118653	-0.026668254	0.06613318	-0.07499486	0.123586304	-0.040999245	0.093809515	-0.10418056	0.018422216	0.030060245	-0.00999511	0.14233181	0.21501666	-0.08418124	-0.14344229	-0.1206658	-0.05475593	0.11715867	-0.033932064	-0.109074816	-0.07005563	-0.07747988	-0.02592878	0.053166065	0.16128686	-0.035268188	-0.015082294	-0.05970621	0.058379427	0.010282344	0.017224774	-0.08373856	0.052885994	-0.027595188	0.06874583	-0.09504526	0.107353434	-0.07652087	-0.044166792	0.027518675	-0.090827785	0.022344379	0.00861618	0.09676369	-0.014129663	-0.025079118	-0.014748715	-0.054009426	-0.09909339	0.029078241	-0.081852466	0.11243857	0.0942746	0.059152436	-0.07682457	-0.06074866	-0.1129108	0.11192195	-0.012551632	0.02330362	0.20554015	-0.0085862875	-0.047935832	0.041111015	0.01079235	0.106288016	-0.11215257	0.056505352	-0.07975415	0.04082222	-0.15348798	-0.09182803	-0.021402482	-0.14408489	0.14577082	-0.035771523	-0.035837438	-0.034665845	0.07926491	0.14765188	-0.17273906	-0.1290717	0.018598817	-0.0609328	0.039451946	-0.14089282	-0.16083108	0.13988128	0.09534776	-0.079719484	-0.030343484	0.07594319	-0.01031711	0.015021031	0.0014304735	-0.071741454	-0.051990427	-0.07427275	-0.14940529	-0.12582833	-0.15775816	-0.00049102027	-0.11333213	-0.2038554	-0.007062009	0.029167647	0.10055336	0.057027873	0.07442679	-0.0669014	0.052492276	-0.15326257
HMGB3	0.10190674	-0.107025586	-0.15462157	-0.022260612	0.13784693	0.10550976	-0.056778535	-0.062246896	0.02189197	-0.075107254	-0.022805847	-0.031152023	0.06044323	-0.0053708456	-0.041513704	0.038399886	-0.17896461	0.06801893	-0.026551517	-0.021856088	0.07437655	-0.118244395	0.055964906	-0.07972571	-0.011264133	-0.024706317	0.024715193	0.13466218	0.08119766	-0.031114442	-0.029900383	-0.097214684	-0.09357374	0.09473794	-0.062821366	0.01875037	-0.092919834	-0.02535852	-0.09937505	0.10216843	0.13080387	-0.12775111	0.017646924	-0.08312853	0.11659664	0.04708668	-0.11376631	-0.0818887	-0.011074799	-0.027941288	0.038324468	-0.22398616	0.073209755	0.041698895	0.10455315	0.03242478	-0.08277487	0.0066738185	0.105980776	-0.006234812	-0.042875882	-0.042995688	-0.094156474	-0.00042791423	-0.118400045	0.11457562	-0.10047115	0.0804594	-0.13702656	0.04764893	-0.11222763	-0.08957545	-0.18684569	0.15832818	-0.051123958	0.049343664	0.16227126	-0.058452345	0.095093116	0.038849056	0.005943552	0.041638892	-0.029942483	0.06691592	-0.08565334	-0.069189034	-0.121990256	-0.15877229	0.040810537	-0.09595796	0.024604203	-0.031615756	-0.0917118	-0.07059289	0.032940675	0.013247228	-0.09396901	-0.20617135	-0.07279561	-0.020685272	0.06086461	0.061048687	-0.05750794	0.0734807	0.056168873	-0.1046368	-0.06610621	0.018865308	-0.038705014	-0.039874848	0.059000082	-0.101181045	-0.090692215	-0.14122422	-0.11604931	-0.06798507	-0.081901014	-0.053005602	-0.046329357	-0.1927942	0.0175824	0.14572258	0.09423741	-0.025322773	-0.08088109	-0.045260344	0.082442306	-0.20037106
HMGN1	0.12547524	0.012451024	-0.06696756	-0.09092873	0.018769108	0.03563344	-0.02380854	-0.2202283	-0.05909156	0.082160145	-0.14701848	0.020873146	0.16126175	0.08289651	-0.09826972	0.1654775	-0.11455039	0.040856857	0.073117405	-0.010547894	0.10171159	-0.06634291	-0.026017454	0.008292213	-0.021792486	-0.14804672	-0.08872302	0.14989237	0.07433157	0.07844661	0.0064574685	-0.09086843	-0.11924346	-0.0030587232	0.14804557	0.01886065	-0.11343744	-0.045153797	0.1295626	-0.052262817	0.058134373	0.082277276	-0.10674362	0.0050695827	0.098540224	-0.05113565	-0.082193635	0.12323916	-0.057009794	0.06679833	0.10956276	-0.0062009785	0.07738072	0.037790343	0.06862877	0.047991313	-0.0046043466	0.021561172	0.029504556	0.08330078	0.020408949	0.011372031	0.13496752	0.08895841	0.05455758	0.081672035	-0.048084006	0.11307175	-0.04412662	0.08592438	-0.14688621	-0.1886025	-0.19492835	0.121984616	-0.07835813	-0.028314833	0.14661537	-0.010136273	-0.12943816	0.04727995	0.1453594	0.12044619	0.04495439	0.07496656	-0.038981047	-0.12822819	-0.015818981	-0.09079375	-0.007224424	-0.030434048	0.07338569	-0.017610203	-0.0111404555	0.10515622	0.047894545	0.01258121	0.0037344142	-0.099002115	-0.05212674	0.0004287114	0.010287243	0.049156684	0.018652184	0.022960953	-0.017613366	0.09467648	-0.025416084	0.1434226	-0.13205618	-0.06960754	0.014607894	-0.11367058	0.08392831	0.084909014	-0.036372356	-0.15435396	0.10859851	0.10615676	-0.07292373	-0.063149385	-0.097954564	-0.050381813	0.2030658	-0.04589961	0.017060416	0.09861536	-0.109755255	-0.035545126
HNRNPF	-0.01721709	0.049531993	0.028620476	0.12599011	-0.14049834	-0.04931048	0.011750065	0.037687723	-0.02303508	0.17440145	-0.1073084	-0.113732494	0.045097105	0.09614402	0.07187821	-0.08243143	-0.0056737233	0.17768131	-0.08994547	0.1548188	-0.03923684	-0.20108688	0.009390105	0.13844936	0.09036104	0.072300896	-0.08891767	-0.0048033474	-0.0823095	0.014044574	-0.09311098	0.023186723	-0.013636232	-0.21706668	0.048130617	0.06666587	-0.012955734	-0.0952725	0.08679602	0.09563963	0.047478773	0.09028424	-0.0034527727	6.545321e-05	0.109198816	-0.09278379	0.011200203	-0.02874046	-0.07871112	0.09579182	-0.08372693	0.050614625	0.071025416	0.16290914	0.08623306	-0.10352647	-0.022143185	-0.08275946	-0.11580425	-0.077126116	0.031112412	-0.13350803	0.09518361	0.13787495	0.11563545	0.10687963	0.084624134	0.08485491	-0.009896712	-0.16535759	0.006405591	0.025830494	-0.1041874	-0.058801584	0.0823411	-0.11801634	0.07294041	0.018859705	-0.124973305	-0.14966486	0.083006345	0.045835793	0.08350381	-0.091762	0.13856584	-0.071333066	0.08318411	-0.042737056	0.12772202	0.050265223	-0.05575093	0.074754216	-0.01120407	0.0866371	-0.012904255	0.12929259	0.08670585	0.037377268	0.04327975	0.07110024	0.08809741	0.030002207	0.08254079	-0.014787826	-0.044753283	-0.07589466	0.16186416	-0.11340747	-0.0046026474	0.018532427	-0.058220964	0.070071325	0.07751021	-0.03723726	0.06395644	0.04364363	-0.080527104	-0.102428	-0.03712	0.05225169	-0.12092398	-0.05143032	0.036115706	0.08788491	-0.0974698	0.15602909	-0.13353461	-0.02650445
HSP90AA1	-0.14125484	-0.09393036	0.045208097	-0.023336539	-0.052433886	-0.09710144	0.1446581	-0.07986681	0.10102023	0.0049159587	0.067243874	0.071082495	-0.004721343	0.047002207	0.09792953	0.026852606	-0.005325965	-0.07652353	-0.06433736	-0.05848676	-0.1791289	0.025353001	-0.07332917	0.106115974	-0.04700208	-0.106608845	-0.040686816	-0.023513688	-0.14143059	0.13631698	-0.10045328	0.02703563	0.14655487	-0.08092232	-0.026013035	0.19647695	0.010813075	0.101692095	-0.032089088	0.048093293	-0.12757845	0.0984534	0.07129294	-0.10499196	-0.013755164	0.080613986	-0.07970882	-0.010677121	0.05129335	-0.075786605	-0.012087043	-0.039004385	-0.041949023	-0.041320737	0.09227778	-0.09599028	0.05628588	0.121250294	-0.07270393	0.07927663	-0.18488623	-0.11048909	0.0154790925	-0.062031202	-0.003557039	-0.0028010737	0.09928585	-0.1179417	-0.10424264	0.07287644	0.15207957	0.10250769	0.06313038	-0.113693535	0.0071138223	-0.12135101	-0.07902411	-0.16661948	0.0030539792	0.030585922	-0.034370694	-0.102212384	-0.015894508	-0.1361411	-0.06717585	0.041634064	0.15617274	0.045359343	-0.031143878	0.08754892	-0.020594249	-0.06284971	0.16080453	-0.09905833	0.0076145073	-0.07200068	0.07761348	0.07354099	-0.08452212	0.11751267	0.10780996	-0.101974666	0.08855219	-0.14937809	-0.15837593	0.053893115	0.11832816	-0.078218125	0.12448065	-0.0055460758	0.009458013	0.09536583	-0.10176953	0.07012261	0.12221729	-0.003998286	0.044570953	-0.0107483035	0.16025516	0.09207685	0.046513993	-0.0671915	-0.053785503	0.0043276963	0.10316709	0.11201655	-0.002171901	0.0859198
HSPA5	-0.11440234	-0.20336981	0.07462471	-0.021081338	0.0016057865	-0.023124931	0.11186784	0.003035984	0.11287069	-0.05203459	0.1514813	0.054994006	0.0007001979	-0.01416219	0.13558047	0.024134103	-0.008253198	-0.14579967	-0.032847513	-0.07421488	-0.14483386	0.058565732	-0.11716175	0.08477602	0.016008874	-0.13407715	0.054616835	0.0249096	-0.06727645	0.16333188	-0.032921996	0.011072998	0.18682021	0.019251663	-0.042068917	0.12779416	0.052676734	0.051275674	-0.10003669	0.120101176	-0.14044094	0.036416914	0.12564646	-0.105129816	-0.06305986	0.1426741	-0.088346854	-0.010009137	0.10014704	-0.07242273	0.035330337	-0.07098406	-0.0023107436	-0.041328046	0.032752324	0.0073233563	0.13437434	0.1532407	-0.10190515	0.14438978	-0.14931425	-0.085824914	-0.027102552	-0.0728368	-0.054278653	-0.056135174	0.028135896	-0.12807688	-0.05080286	0.112613946	0.10203684	0.06976111	0.074672714	-0.064966924	0.032479525	-0.07302542	0.020987784	-0.1420151	0.06367368	0.017646361	0.038888447	-0.113412246	-0.049415443	-0.08985613	-0.07208968	-0.0025742252	0.096224666	0.0646528	-0.08742638	0.097269945	0.04305044	-0.084732726	0.12315634	-0.090390615	0.067400604	-0.10363492	0.042325877	0.054187562	-0.09625713	0.11198671	0.100095704	-0.1079206	0.01536858	-0.0883625	-0.19182321	0.043194883	0.0873908	-0.09534653	0.15567562	-0.07353729	0.020958567	0.06585193	-0.12968923	0.070902616	0.052101992	-0.0035152778	0.053529136	-0.009582857	0.15556477	0.0677901	0.034545135	-0.008097816	0.00018137919	-0.008002518	0.16542616	0.03516552	0.032885436	0.074393705
IFI16	0.064938456	-0.12996624	-0.035407595	0.009163195	0.13232847	0.11616658	-0.08913033	-0.028345356	0.06337838	-0.20212361	0.04946106	-0.0010648237	0.099341646	-0.05048642	-0.009598325	0.048089217	-0.10252204	-0.058016036	0.041652683	-0.1163655	0.052269626	-0.013806656	0.053700533	-0.081351295	0.02054735	-0.0062776674	0.04222104	0.183245	0.13264182	-0.023804346	0.013429281	-0.11864676	0.0017254999	0.14668784	-0.028855406	-0.038003903	-0.15835024	-0.023871895	-0.064856224	0.0015992024	0.09372376	-0.11411397	0.028103335	-0.06085195	-0.021339016	0.056529272	-0.047086768	-0.04099637	0.054621786	-0.06307684	0.08326161	-0.15143791	0.08690872	-0.12347663	0.036299486	0.13900892	-0.028697558	0.0599161	0.16051602	0.03620346	-0.04004165	0.018950637	-0.058313634	0.005305202	-0.07578294	0.03199907	-0.12166721	0.062480517	-0.006361776	0.13279442	-0.087165885	-0.042348117	-0.17925313	0.13058876	-0.0955996	0.118587114	0.13494433	-0.024258517	0.049265712	0.06601474	0.021378193	0.052531153	-0.09264245	0.062783346	-0.08252517	-0.006111446	-0.14116788	-0.10065543	-0.02819445	-0.14731427	0.07626625	0.021177681	-0.028147573	-0.003153893	0.12697116	-0.02154956	-0.20501648	-0.13666108	-0.02445209	-0.060980346	-0.007221502	-0.07116309	-0.1586241	0.1232507	0.060340494	0.033687565	-0.042034965	0.0740302	0.025198048	-0.08127156	0.04764723	-0.15959246	-0.094883814	-0.03557648	-0.15091337	-0.034954842	-0.06717401	0.013159092	-0.048472352	-0.13733743	0.029512733	0.109498285	0.15276107	-0.1079511	0.036131065	-0.13710907	0.08628285	-0.13721439
IKBIP	0.07811769	0.062186416	-0.08381187	0.04120042	-0.0828363	0.088099785	-0.08549561	0.056535475	-0.09476746	0.08470039	0.041295923	-0.10116586	0.015748924	-0.15029828	-0.111937754	-0.011591487	0.08149583	0.057317086	-0.110903904	0.065728135	0.13521612	-0.033318777	-0.16497043	-0.05645005	0.025005916	0.04493659	-0.015869966	-0.04318347	-0.098952904	-0.01100032	0.18574834	-0.04802018	0.040809195	0.0230274	0.11769824	-0.02182447	0.14542682	-0.14710486	0.07493118	0.014605214	-0.010930649	0.0128973	0.03804352	0.19384472	-0.08309185	0.11986367	0.12836106	0.10442757	-0.020462252	0.05186209	0.019696295	0.08833443	-0.12649575	-0.019805219	-0.07538127	0.028006827	-0.051884074	-0.13409883	-0.040576007	-0.06098945	0.23214005	-0.03055062	0.030355945	0.08133589	0.13754924	-0.008600047	0.08097612	0.14363801	0.013503679	-0.034538656	-0.067513384	0.0380019	-0.12424798	-0.018336328	0.13550991	0.1534845	-0.019532247	0.14119554	-0.059199207	-0.07141056	0.03100585	0.05156779	0.024890441	0.14118181	0.22357783	0.03479798	-0.019596267	0.06415552	-0.15674835	-0.13974442	0.07183928	0.008497366	-0.06377355	0.13723832	-0.012531207	0.01600332	0.09733926	0.08911706	0.03630003	-0.09628548	-0.14527659	0.054849163	-0.0021916889	0.035124667	0.013573171	0.0020267046	0.068917096	0.09798093	-0.010463555	-0.0309371	-0.07509802	-0.03387774	0.07135959	0.09306785	-0.1015928	0.07167137	0.038682513	0.14947692	-0.06577954	-0.04160781	0.017018463	0.089229055	-0.0010860427	0.014596404	-0.039787717	-0.09120106	-0.12423956	0.16655661
ILF3	0.09538746	-0.120336816	-0.04780244	0.025061846	0.1545664	0.118229866	-0.08479248	0.07398666	0.01376301	-0.122150466	0.07760329	-0.08758266	0.02551902	-0.04888021	-0.04874403	0.041326348	-0.11608761	0.006975715	0.057639517	-0.06529755	0.12095775	-0.029984858	0.06946373	-0.12383872	0.05809625	-0.066974685	0.099413514	0.122722074	0.13268502	-0.06520148	0.085634515	-0.084607825	-0.054744717	0.149623	0.0035920835	-0.11141597	-0.06472481	-0.059546478	-0.090932734	-0.008396525	0.09316005	-0.14044584	-0.009972089	-0.00010056793	-0.007036966	-0.002654487	-0.020124283	-0.09545071	-0.005484682	-0.021056509	0.111812554	-0.11855261	0.043508723	-0.056554295	-0.06286756	0.18040015	-0.0011940238	0.025163494	0.09815092	0.024984634	0.06988704	0.043869577	-0.033550486	-0.01814995	-0.09433562	0.023507936	-0.14110503	0.07642718	0.059279338	0.053938303	-0.102862366	-0.031606775	-0.1416573	0.13200721	-0.04254378	0.1300575	0.15549736	0.011066953	0.11238261	0.05184496	0.072669305	0.11462705	-0.029015157	0.10645753	-0.043466046	-0.09433796	-0.16126412	-0.118141085	-0.031814672	-0.12983015	0.15209663	0.0055532516	-0.054078296	0.021746648	0.023211094	-0.030190218	-0.16653755	-0.14833112	0.02475929	-0.09040665	-0.04954061	0.0212673	-0.13019158	0.13630846	0.09089785	-0.044531725	-0.113385804	0.08199727	-0.036246486	-0.07491974	0.047643106	-0.13049996	-0.09668697	-0.037324034	-0.13886328	-0.077584825	-0.04288358	0.0039012989	-0.0877386	-0.116123885	0.005177579	0.19941466	0.08978071	-0.015651777	-0.02653128	-0.15630873	0.10220896	-0.09649365
IRS1	-0.09356085	-0.0646974	0.039366245	-0.069955364	0.010498436	-0.08614498	0.075334266	-0.166163	0.114304	-0.05884108	0.010779897	0.13093817	0.015594042	0.090394996	0.033054803	0.15012506	-0.05695498	-0.16827865	0.110198	-0.11848647	-0.099335946	0.111786164	-0.06084585	0.046858523	-0.045164328	-0.17375417	-0.082959324	0.0788346	0.032476008	0.17800017	-0.112970866	-0.0082887085	0.06632749	0.03234649	0.030190773	0.10165685	-0.062107228	0.10061866	-0.0095945615	-0.1073801	-0.07111297	0.098388866	0.020153351	-0.12610747	-0.00841377	0.05316043	-0.061680987	0.06883844	0.10103748	-0.06941497	0.071457	-0.02270786	0.047587175	-0.111586526	0.0365578	-0.037665006	0.08472406	0.15833086	-0.075311415	0.17523344	-0.17364626	0.021367108	0.040804356	-0.0923798	-0.068823524	-0.03504015	-0.049453564	-0.106494054	-0.010442664	0.16097666	0.030190201	-0.0089070145	0.063942105	-0.030619737	-0.09195464	-0.10776058	-0.017217217	-0.120732225	-0.09703203	0.09592598	0.023756247	-0.01752584	-0.032374397	-0.09245985	-0.18368255	0.038016383	0.06496744	0.0999778	-0.10747794	0.053155124	0.04990315	-0.07496677	0.16424434	-0.072067775	0.100462675	-0.00075112237	0.010785066	0.0380661	-0.0892815	0.08673136	0.08063794	-0.16211157	-0.010160662	-0.105782166	-0.07446446	0.14025229	-0.011347894	0.086392686	0.022203837	-0.012352741	0.07871036	0.020066826	-0.0707978	0.1598155	0.077796824	-0.12097185	0.094996184	0.03821111	0.11113899	0.086814284	0.042729728	-0.06827798	0.062590696	-0.053171955	0.17523931	0.06663778	0.0041516	0.059678607
IVNS1ABP	-0.13271216	-0.1084681	0.047596358	0.023539253	-0.08569583	-0.20807654	0.057665784	0.053232957	0.018561339	0.03774482	0.05295758	0.11189108	-0.10774818	0.007680517	0.04180582	0.12852456	0.0072653745	-0.12359312	-0.06251142	-0.05025441	-0.14909796	0.057806056	-0.09879663	0.10382959	-0.020179324	-0.20050761	0.012264135	-0.04943869	-0.11669621	0.10984797	0.011441684	0.13281956	0.13294703	-0.003051758	-0.0059359744	0.10461697	0.023076553	0.0904476	-0.025952613	-0.015693488	-0.14064142	0.10841656	0.052159775	-0.06134864	-0.035416204	0.032168835	-0.056568824	-0.07359746	0.033311643	-0.059262678	-0.003238015	0.008113853	0.029649189	-0.010538394	0.060561456	-0.012802259	-0.025500376	0.12541237	-0.11954073	0.14599368	-0.15532927	-0.07128518	0.019107515	-0.058100205	-0.0036318246	-0.03661545	0.091358855	-0.0910001	-0.0457116	0.074543	0.15904626	0.07197228	0.12278041	-0.05207028	0.048791517	-0.079278395	-0.07497005	-0.15416606	0.09466701	-0.0012700701	0.043343518	-0.058894627	0.08781994	-0.047691267	-0.070409045	0.063977115	0.089293495	0.09861375	-0.12233388	0.10423572	0.051962435	-0.095934406	0.120579354	-0.1430364	0.02472979	-0.12961392	0.072604194	0.123054996	0.00951186	0.08505134	-0.00901672	-0.065478414	0.12059893	-0.0947113	-0.12457404	0.05762625	0.06317324	0.030553488	0.046214275	-0.13541918	0.1534284	0.053191125	-0.14714113	0.17693539	0.07331274	-0.03678504	0.02599933	-0.010450359	0.12922525	0.11207282	-0.02710377	-0.06969276	-0.021202998	0.02774931	0.1421911	0.10708448	-0.028673466	0.13912678
JUP	0.02877735	0.09139975	-0.16336474	-0.038962413	0.062987484	0.019082922	0.098436385	-0.13209297	-0.22954574	0.19463642	-0.06390839	0.108326055	-0.052327916	-0.048332773	0.0107017355	0.040567644	-0.05718919	0.116740674	-0.10945105	0.10647162	0.06461556	-0.037589867	-0.02045115	0.036012847	-0.17542823	0.017410967	-0.045569543	-0.019948114	-0.08560962	0.04565149	0.14073522	0.09984939	-0.07029866	-0.0026503056	0.07590019	0.014220206	-0.035734307	0.020274086	0.15261792	-0.009911766	-0.08410362	0.049859732	-0.037915666	0.036892727	0.116647	-0.117009565	-0.1552049	0.15727471	-0.05938387	-0.017928384	-0.106488034	-0.03597612	-0.08648812	0.09345769	0.05766188	-0.018900836	0.01902869	-0.0059625227	0.14178471	-0.123666495	0.13907109	0.017532656	0.027132018	0.011276025	0.09872971	-0.018767452	0.028212443	0.03532748	-0.18819545	-0.041576803	-0.0038189418	-0.2329148	-0.07581451	0.12652652	-0.011294153	0.023021575	0.028048014	-0.009021248	0.07214841	-0.0022800358	-0.0629781	-0.1472871	0.13770264	0.055368792	0.023478363	0.010239822	0.0062701534	-0.026853617	0.09543162	0.0689333	-0.18129902	-0.09254121	-0.05404531	-0.026847549	-0.1434329	-0.060528282	0.1171352	0.007529239	-0.11591057	0.07243506	0.033082742	0.20737156	0.20784466	-0.037640844	-0.07333821	0.011419724	0.016565537	0.020083183	-0.054429036	-0.060609482	0.039463244	-0.070431896	0.05337603	-0.13026571	-0.027290136	-0.018995317	0.050631333	0.07359093	-0.020017859	-0.07136013	-0.02912481	-0.13898408	-0.08467651	0.033873122	-0.033678535	0.090751	-0.040472068	0.042171925
KHDRBS1	-0.051543463	0.14289823	0.0021278984	0.11013412	-0.027338477	-0.0659065	0.028458985	-0.043320704	0.0033299755	0.1254878	-0.17149276	-0.09382807	0.1274468	0.15173583	-0.06895912	-0.0077383136	-0.044259343	0.11128616	0.018395742	0.2150776	-0.050101016	-0.112911254	0.06417069	0.06776505	-0.020191709	0.100730866	-0.086181894	0.06403693	0.022173561	-0.036433216	-0.08016853	0.012295052	-0.087763265	-0.15028271	0.03843776	-0.073228225	-0.015765714	0.043966763	0.13498284	-0.11455536	0.06688142	0.10156981	-0.057134196	-0.020655548	0.15318199	-0.1703732	0.036971886	-0.042336714	-0.11554836	0.07590355	0.012533236	0.074575014	0.041776314	0.11660494	0.11518193	-0.12782757	-0.034189597	-0.111666925	-0.107377805	-0.03781767	0.0896092	-0.042394705	0.15137285	0.111310236	0.1682726	0.07414504	-0.038998283	0.037124503	0.010064886	-0.18368036	-0.054643128	0.003533564	-0.027978655	0.022447206	-0.004768944	-0.13149032	0.0008306152	0.06746791	-0.13045819	-0.07956753	0.12760285	0.18332289	0.14001413	-0.09325947	-0.0058591254	-0.04463348	-0.033344984	-0.06747014	0.10109837	-0.056879014	-0.06112271	0.14605796	0.0046283663	0.11264547	0.06419783	0.16597651	0.062438194	0.05880401	0.055621702	0.016161382	0.10875099	0.09592258	-0.05093481	-0.034132123	0.0136955865	0.0022827878	0.011054891	-0.04539852	-0.114567935	0.020179521	-0.07081716	-0.04055946	0.09718553	-0.04723541	0.15500216	-0.083093025	-0.03363318	-0.045486536	-0.06174617	0.0018336509	-0.102070116	-0.07918218	0.035389766	0.054742966	-0.07429289	0.14120851	-0.112041585	-0.042388324
LCP1	0.11635938	0.028443867	-0.103730135	-0.069184616	0.07418445	0.010194666	0.040632993	-0.09092126	-0.14759572	0.11994471	-0.028831655	0.22374074	-0.046708416	-0.028204165	0.13756081	-0.07124079	-0.06623014	-0.01065036	-0.11652949	0.1165655	-0.03841292	0.017303837	-0.026119102	-0.004260814	-0.11931514	0.08266825	-0.058293633	-0.04692768	-0.012455944	-0.055897478	0.09931343	0.087628156	-0.028150847	0.010212682	0.12187568	0.023482071	-0.059045147	0.17852618	0.12073744	0.10200196	-0.08625995	-0.014714903	0.042582173	-0.057318017	0.08601596	-0.042305898	-0.18634884	0.16035978	0.06994046	-0.09133464	-0.14837085	0.09429388	-0.10412695	0.009879689	0.1397144	-0.07297532	-0.028828684	0.03128114	0.11344733	-0.11050933	0.12763396	0.029505692	0.0057649724	-0.0056508076	0.051165074	-0.12923302	-0.10134211	-0.08953849	-0.06988187	-0.081098184	-0.037188496	-0.0970116	0.06606735	-0.0339202	-0.06635782	0.053567417	-0.08399985	-0.084624216	0.04404572	0.095588356	-0.18467492	-0.13991809	0.061686315	0.07302139	0.038097017	0.013980558	-0.07379147	0.06607964	0.15280467	0.04061566	-0.21137737	-0.13535063	-0.062321026	-0.020215172	-0.05403188	-0.16248897	0.05893077	0.1178046	-0.113599405	0.0322301	-0.030976955	0.10911375	0.10698896	-0.047976606	-0.10205457	0.03566696	-0.033727806	0.029200181	-0.042897448	-0.025758017	0.106293716	-0.06640993	0.03374402	-0.18119788	0.04660198	0.014691621	0.07746077	0.056178574	-0.029675784	-0.03142995	-0.0032176396	-0.15149975	-0.03162821	-0.039854378	0.019658927	0.032935403	0.09694869	0.0916512
LDHA	-0.16385445	-0.109671645	0.10011833	-0.053015534	-0.012430726	-0.03582861	0.13100024	0.005141211	0.07915398	-0.020883888	0.15188742	0.004691599	-0.0004346278	0.04539272	0.11728224	-0.0052931076	0.01694653	-0.070279375	-0.05152469	-0.031768564	-0.1419768	0.036083348	-0.039281573	0.093053356	0.008400477	-0.09943703	-0.013936786	0.04354087	-0.11846869	0.14917096	-0.045761295	0.033675823	0.1519067	-0.06161658	-0.006542159	0.13620275	0.012066733	0.038692847	-0.051026583	0.08122993	-0.14840351	0.08289511	0.10590469	-0.100017264	-0.035119366	0.10734079	-0.12017661	0.024275543	0.08842259	-0.110935695	0.032102272	-0.04804451	-0.00061423884	-0.008018247	0.03616481	-0.051978398	0.18901578	0.14537805	-0.13667412	0.06949685	-0.13598272	-0.13626756	0.02628255	-0.059975088	-0.02207447	-0.08207424	0.03863404	-0.11971495	-0.08913372	0.048174456	0.07617666	0.06065213	0.109087944	-0.044849638	-0.007540082	-0.1201222	0.0051326565	-0.122666344	0.026634846	0.009012787	0.031938083	-0.12917341	0.0068358723	-0.14052823	-0.03196737	-0.0110462485	0.096935004	0.08966426	-0.05531853	0.13459972	-0.008389881	-0.082641475	0.17625801	-0.11287989	0.030746743	-0.051420145	0.05143368	0.046350807	-0.08047158	0.17234994	0.101850994	-0.07998279	0.055156864	-0.10974833	-0.20746662	0.053995505	0.1092605	-0.14717416	0.16711853	-0.042037323	-0.029345617	0.063111395	-0.15438439	0.061009873	0.06135075	-0.0098314695	0.09056001	-0.010631068	0.14453053	0.12952593	0.008821101	-0.06886382	-0.028273018	0.010864609	0.09977329	0.05275948	0.029393096	0.07850739
LRRC59	0.06905905	0.07313409	-0.13906448	-0.02204797	-0.06307515	0.10092082	-0.08988891	0.050486434	-0.09269013	0.055723716	0.016504413	-0.14130327	-0.0044361562	-0.15871052	-0.13434134	-0.038948942	0.06304532	0.051078144	-0.13209711	0.04713659	0.12419448	-0.053993966	-0.14441429	-0.09506342	-0.0106625175	0.10295111	-0.060346346	-0.023956621	-0.1305493	-0.031080684	0.1438357	-0.08100267	0.025033496	0.012225815	0.11326796	0.014957448	0.15343769	-0.1377866	-0.0018009953	0.04888665	0.011519235	0.015461752	0.064193174	0.18883747	-0.08016868	0.1709702	0.13271496	0.108199276	-0.0020050227	0.014726826	-0.012630396	0.069757625	-0.09807551	-0.07336751	-0.0941296	-0.0969609	-0.044639707	-0.1828723	-0.030872267	0.008561488	0.15904063	-0.10190832	-0.05229296	0.05635197	0.08154535	0.07860878	0.12386283	0.11586231	-0.06773193	0.0116102705	-0.035407133	0.08457884	-0.09485682	-0.051394273	0.12099365	0.16952167	-0.04589395	0.10299939	-0.04325846	-0.05000129	-0.031369716	0.012463237	-0.031635087	0.10806663	0.19281942	0.06838356	-0.0144261625	0.06884206	-0.17765963	-0.14070447	0.021933705	-0.04573367	-0.06287298	0.0706957	-0.049825393	0.06605661	0.12367203	0.066834025	-0.016003216	-0.0896501	-0.0684424	0.00034385917	0.0128668295	0.06272281	0.0485264	-0.014578064	0.11764195	0.067453384	0.039155938	0.03435877	-0.103309155	0.019242844	0.050204873	0.064775534	-0.110892914	0.078704685	-0.03879413	0.09820132	-0.030735647	-0.024707045	0.072862506	0.14002189	-0.08919488	0.07193044	-0.06010075	-0.12051761	-0.12638439	0.12099989
